[[  0.00000000e+00   0.00000000e+00   0.00000000e+00   0.00000000e+00
    0.00000000e+00   0.00000000e+00   0.00000000e+00   0.00000000e+00
    0.00000000e+00   0.00000000e+00]
 [  0.00000000e+00   0.00000000e+00   0.00000000e+00   0.00000000e+00
    0.00000000e+00   0.00000000e+00   0.00000000e+00   0.00000000e+00
    0.00000000e+00   0.00000000e+00]
 [  0.00000000e+00   0.00000000e+00   0.00000000e+00   0.00000000e+00
    0.00000000e+00   0.00000000e+00   0.00000000e+00   0.00000000e+00
    0.00000000e+00   0.00000000e+00]
 [  0.00000000e+00   0.00000000e+00   0.00000000e+00   0.00000000e+00
    0.00000000e+00   0.00000000e+00   0.00000000e+00   0.00000000e+00
    0.00000000e+00   0.00000000e+00]
 [  0.00000000e+00   0.00000000e+00   0.00000000e+00   0.00000000e+00
    0.00000000e+00   0.00000000e+00   0.00000000e+00   0.00000000e+00
    0.00000000e+00   0.00000000e+00]
 [  0.00000000e+00   0.00000000e+00   0.00000000e+00   0.00000000e+00
    0.00000000e+00   0.00000000e+00   0.00000000e+00   0.00000000e+00
    0.00000000e+00   0.00000000e+00]
 [  0.00000000e+00   0.00000000e+00   0.00000000e+00   0.00000000e+00
    0.00000000e+00   0.00000000e+00   0.00000000e+00   0.00000000e+00
    0.00000000e+00   0.00000000e+00]
 [  0.00000000e+00   0.00000000e+00   0.00000000e+00   0.00000000e+00
    0.00000000e+00   0.00000000e+00   0.00000000e+00   0.00000000e+00
    0.00000000e+00   0.00000000e+00]
 [  0.00000000e+00   0.00000000e+00   0.00000000e+00   0.00000000e+00
    0.00000000e+00   0.00000000e+00   0.00000000e+00   0.00000000e+00
    0.00000000e+00   0.00000000e+00]
 [  0.00000000e+00   0.00000000e+00   0.00000000e+00   0.00000000e+00
    0.00000000e+00   0.00000000e+00   0.00000000e+00   0.00000000e+00
    0.00000000e+00   0.00000000e+00]
 [  0.00000000e+00   0.00000000e+00   0.00000000e+00   0.00000000e+00
    0.00000000e+00   0.00000000e+00   0.00000000e+00   0.00000000e+00
    0.00000000e+00   0.00000000e+00]
 [  0.00000000e+00   0.00000000e+00   0.00000000e+00   0.00000000e+00
    0.00000000e+00   0.00000000e+00   0.00000000e+00   0.00000000e+00
    0.00000000e+00   0.00000000e+00]
 [ -1.14647401e-06  -1.56218971e-06  -3.03994766e-05  -5.47448963e-06
   -1.50943670e-04  -5.19704872e-06   2.33151339e-04  -1.96724727e-06
   -1.29277432e-05  -2.35329990e-05]
 [ -4.48931951e-06  -4.10368239e-06   1.39526055e-05  -1.29185319e-05
   -3.73889168e-04  -1.16490801e-05   4.89447673e-04  -6.20348010e-06
   -3.21352782e-05  -5.80117485e-05]
 [ -2.20217817e-06  -7.60076432e-07   8.95999838e-05  -1.03634386e-06
   -4.82676005e-05  -2.99719602e-07  -2.34506570e-05  -2.10975963e-06
   -4.25980807e-06  -7.21388960e-06]
 [ -9.17574141e-08  -3.16698490e-08   3.73333251e-06  -4.31809930e-08
   -2.01114995e-06  -1.24883162e-08  -9.77110631e-07  -8.79066491e-08
   -1.77491998e-07  -3.00578705e-07]
 [  0.00000000e+00   0.00000000e+00   0.00000000e+00   0.00000000e+00
    0.00000000e+00   0.00000000e+00   0.00000000e+00   0.00000000e+00
    0.00000000e+00   0.00000000e+00]
 [  0.00000000e+00   0.00000000e+00   0.00000000e+00   0.00000000e+00
    0.00000000e+00   0.00000000e+00   0.00000000e+00   0.00000000e+00
    0.00000000e+00   0.00000000e+00]
 [  0.00000000e+00   0.00000000e+00   0.00000000e+00   0.00000000e+00
    0.00000000e+00   0.00000000e+00   0.00000000e+00   0.00000000e+00
    0.00000000e+00   0.00000000e+00]
 [  0.00000000e+00   0.00000000e+00   0.00000000e+00   0.00000000e+00
    0.00000000e+00   0.00000000e+00   0.00000000e+00   0.00000000e+00
    0.00000000e+00   0.00000000e+00]
 [  0.00000000e+00   0.00000000e+00   0.00000000e+00   0.00000000e+00
    0.00000000e+00   0.00000000e+00   0.00000000e+00   0.00000000e+00
    0.00000000e+00   0.00000000e+00]
 [  0.00000000e+00   0.00000000e+00   0.00000000e+00   0.00000000e+00
    0.00000000e+00   0.00000000e+00   0.00000000e+00   0.00000000e+00
    0.00000000e+00   0.00000000e+00]
 [  0.00000000e+00   0.00000000e+00   0.00000000e+00   0.00000000e+00
    0.00000000e+00   0.00000000e+00   0.00000000e+00   0.00000000e+00
    0.00000000e+00   0.00000000e+00]
 [  0.00000000e+00   0.00000000e+00   0.00000000e+00   0.00000000e+00
    0.00000000e+00   0.00000000e+00   0.00000000e+00   0.00000000e+00
    0.00000000e+00   0.00000000e+00]
 [  0.00000000e+00   0.00000000e+00   0.00000000e+00   0.00000000e+00
    0.00000000e+00   0.00000000e+00   0.00000000e+00   0.00000000e+00
    0.00000000e+00   0.00000000e+00]
 [  0.00000000e+00   0.00000000e+00   0.00000000e+00   0.00000000e+00
    0.00000000e+00   0.00000000e+00   0.00000000e+00   0.00000000e+00
    0.00000000e+00   0.00000000e+00]
 [  0.00000000e+00   0.00000000e+00   0.00000000e+00   0.00000000e+00
    0.00000000e+00   0.00000000e+00   0.00000000e+00   0.00000000e+00
    0.00000000e+00   0.00000000e+00]
 [  0.00000000e+00   0.00000000e+00   0.00000000e+00   0.00000000e+00
    0.00000000e+00   0.00000000e+00   0.00000000e+00   0.00000000e+00
    0.00000000e+00   0.00000000e+00]
 [  0.00000000e+00   0.00000000e+00   0.00000000e+00   0.00000000e+00
    0.00000000e+00   0.00000000e+00   0.00000000e+00   0.00000000e+00
    0.00000000e+00   0.00000000e+00]
 [  0.00000000e+00   0.00000000e+00   0.00000000e+00   0.00000000e+00
    0.00000000e+00   0.00000000e+00   0.00000000e+00   0.00000000e+00
    0.00000000e+00   0.00000000e+00]
 [  0.00000000e+00   0.00000000e+00   0.00000000e+00   0.00000000e+00
    0.00000000e+00   0.00000000e+00   0.00000000e+00   0.00000000e+00
    0.00000000e+00   0.00000000e+00]
 [  0.00000000e+00   0.00000000e+00   0.00000000e+00   0.00000000e+00
    0.00000000e+00   0.00000000e+00   0.00000000e+00   0.00000000e+00
    0.00000000e+00   0.00000000e+00]
 [ -9.42581977e-08  -4.36073009e-08  -1.33689105e-06  -1.25738913e-08
   -2.63965740e-06  -9.66756843e-08   4.88830483e-06  -4.33063860e-08
   -1.43515692e-07  -4.77815149e-07]
 [ -3.58669325e-07  -1.29992969e-07  -4.52464565e-06  -5.03925293e-08
   -1.04002020e-05  -2.97930399e-07   1.82064778e-05  -2.78599686e-07
   -4.43740618e-07  -1.72229022e-06]
 [ -2.32134789e-05  -1.36220551e-05  -7.14822818e-05  -1.69747273e-05
   -4.31860884e-04  -1.89331367e-05   6.63321465e-04  -2.87449366e-05
   -1.56727347e-05  -4.28171406e-05]
 [ -7.52420237e-05  -5.73929501e-05  -1.58897077e-04  -5.99400628e-05
   -9.78485914e-04  -6.20787614e-05   1.66052370e-03  -8.97748469e-05
   -6.09318631e-05  -1.17780175e-04]
 [ -9.83308491e-05  -1.98192269e-04   4.84962075e-05  -6.51801020e-05
   -1.24463986e-03  -4.65110934e-05   2.03807093e-03  -1.54618072e-04
   -9.62418635e-05  -1.82852993e-04]
 [ -1.90243416e-04  -2.19194175e-04  -2.43397764e-04  -1.00572099e-04
   -1.17644796e-03  -6.43175008e-05   2.58220732e-03  -1.87679951e-04
   -1.72544838e-04  -2.27809593e-04]
 [ -2.92584038e-04  -2.32356659e-04  -7.29105202e-04  -9.17240832e-05
   -2.44138739e-03  -1.00608886e-04   4.78246482e-03  -2.44590599e-04
   -2.96241313e-04  -3.53865762e-04]
 [  1.12303700e-04  -2.01560601e-04  -1.26734038e-03  -9.24033448e-05
   -3.39439046e-03  -1.21858335e-04   6.18490530e-03  -3.78356141e-04
   -3.12934106e-04  -5.28365315e-04]
 [  4.82178817e-04  -1.65604113e-04  -1.59165682e-03  -1.53020024e-04
   -4.59429761e-03  -2.38415378e-04   7.91366864e-03  -5.17155218e-04
   -3.67859058e-04  -7.67839199e-04]
 [  5.62269634e-06  -2.43004222e-04  -9.79172066e-04  -2.49635195e-04
   -3.22897104e-03  -3.56458011e-04   6.47193333e-03  -3.64832784e-04
   -4.19219228e-04  -6.36264449e-04]
 [ -5.34303777e-04   7.67877209e-05  -3.44320550e-04  -3.27876682e-04
   -1.91686838e-03  -4.45234502e-04   5.11848275e-03  -3.62766586e-04
   -5.99607301e-04  -6.64293591e-04]
 [ -1.50495849e-04   3.59349913e-04  -2.39292174e-04  -3.04197398e-04
   -1.97379477e-03  -4.31670924e-04   4.58661327e-03  -4.20730968e-04
   -6.21132844e-04  -8.04646697e-04]
 [  4.24211757e-04  -4.77912923e-04   1.07700191e-03  -2.22607894e-04
   -2.19888915e-03  -3.40077910e-04   3.84583790e-03  -4.11564775e-04
   -6.44110143e-04  -1.05188962e-03]
 [  6.19467610e-05  -3.37448961e-04  -5.16570908e-05  -1.50877895e-04
   -1.45455101e-03  -2.53898208e-04   3.68081615e-03  -2.46699812e-04
   -5.16411732e-04  -7.31217850e-04]
 [ -3.01209831e-04  -1.92703301e-04  -8.29050841e-04  -1.24880782e-04
   -8.67680472e-04  -2.54813174e-04   3.51718138e-03  -1.61021089e-04
   -3.79099394e-04  -4.06722975e-04]
 [ -1.74930959e-04  -1.02083191e-04  -6.30738446e-04  -7.71153791e-05
   -5.91528253e-04  -1.49535626e-04   2.26144935e-03  -7.86277233e-05
   -2.23225448e-04  -2.33664818e-04]
 [ -1.04980456e-04  -7.98185065e-05  -4.24646307e-04  -5.47328927e-05
   -5.30523655e-04  -9.53150666e-05   1.67053635e-03  -4.77713656e-05
   -1.66313432e-04  -1.66434926e-04]
 [ -6.35731994e-05  -4.95202003e-05  -2.62467540e-04  -1.54115623e-05
   -5.40583511e-04  -2.88571027e-05   1.15453475e-03  -9.62449940e-06
   -1.05836109e-04  -7.86609526e-05]
 [ -1.96607944e-05  -7.56894678e-06  -5.68847536e-05  -1.89438867e-06
   -4.50042397e-04  -5.09593565e-06   6.15464756e-04  -3.82473172e-06
   -3.10732430e-05  -3.94194867e-05]
 [ -4.75806132e-07  -4.19213450e-07  -1.23113132e-05  -1.42807522e-07
   -1.41186640e-04  -1.36419226e-06   1.73923720e-04  -2.45077626e-06
   -5.73582702e-06  -9.83713562e-06]
 [  0.00000000e+00   0.00000000e+00   0.00000000e+00   0.00000000e+00
    0.00000000e+00   0.00000000e+00   0.00000000e+00   0.00000000e+00
    0.00000000e+00   0.00000000e+00]
 [  0.00000000e+00   0.00000000e+00   0.00000000e+00   0.00000000e+00
    0.00000000e+00   0.00000000e+00   0.00000000e+00   0.00000000e+00
    0.00000000e+00   0.00000000e+00]
 [  0.00000000e+00   0.00000000e+00   0.00000000e+00   0.00000000e+00
    0.00000000e+00   0.00000000e+00   0.00000000e+00   0.00000000e+00
    0.00000000e+00   0.00000000e+00]
 [  0.00000000e+00   0.00000000e+00   0.00000000e+00   0.00000000e+00
    0.00000000e+00   0.00000000e+00   0.00000000e+00   0.00000000e+00
    0.00000000e+00   0.00000000e+00]
 [  0.00000000e+00   0.00000000e+00   0.00000000e+00   0.00000000e+00
    0.00000000e+00   0.00000000e+00   0.00000000e+00   0.00000000e+00
    0.00000000e+00   0.00000000e+00]
 [  0.00000000e+00   0.00000000e+00   0.00000000e+00   0.00000000e+00
    0.00000000e+00   0.00000000e+00   0.00000000e+00   0.00000000e+00
    0.00000000e+00   0.00000000e+00]
 [ -6.49358981e-07  -5.19552543e-08  -8.94647314e-07  -1.45563746e-07
   -1.28206295e-06  -9.93361709e-07   5.87623663e-06  -1.61261369e-08
   -5.97472422e-07  -1.24565895e-06]
 [  3.19207247e-05  -3.53578180e-08  -2.23808888e-06  -3.10622113e-07
   -1.74396882e-05  -2.94586926e-06   1.67664666e-07  -3.35085247e-06
   -1.60904915e-06  -4.15884961e-06]
 [  5.67431016e-06  -1.14170552e-06  -6.02245964e-05  -1.06368225e-06
   -7.25100472e-05  -4.46762579e-06   1.55800881e-04  -4.07250582e-06
   -7.92147694e-06  -1.00735288e-05]
 [ -1.82529075e-05  -1.11145778e-06  -2.23798816e-05  -1.82681322e-06
   -3.20636573e-05  -2.77563549e-06   9.29341986e-05  -3.18280081e-06
   -4.55127974e-06  -6.78980405e-06]
 [ -2.50955869e-04  -6.65160187e-05  -3.27543181e-04  -6.81282399e-05
   -6.67031913e-04  -7.03469414e-05   1.77242083e-03  -1.11105968e-04
   -9.07720532e-05  -1.20020486e-04]
 [ -4.65769321e-04  -3.46554967e-04  -4.00827266e-04  -2.84023350e-04
   -3.02238925e-03  -2.72876816e-04   6.17803261e-03  -4.41596814e-04
   -3.90788016e-04  -5.53207938e-04]
 [ -1.02777197e-03  -1.02781784e-03   3.99457640e-05  -6.41687540e-04
   -4.72048577e-03  -4.06264415e-04   1.01901200e-02  -8.08233104e-04
   -7.17585383e-04  -8.80220090e-04]
 [ -2.33795331e-03  -1.67744211e-03   8.71935918e-04  -1.19153841e-03
   -6.98638801e-03  -7.87360943e-04   1.62502211e-02  -1.31309393e-03
   -1.44226663e-03  -1.38610823e-03]
 [ -3.65480059e-03  -2.40272214e-03  -1.06462499e-03  -1.62009173e-03
   -1.27375163e-02  -1.43232895e-03   3.01003754e-02  -2.15708185e-03
   -2.50046165e-03  -2.53074686e-03]
 [ -4.49814834e-03  -2.77878856e-03  -4.73065709e-04  -1.66239031e-03
   -1.78660229e-02  -2.33871629e-03   3.96978632e-02  -2.88640452e-03
   -3.49006709e-03  -3.70426732e-03]
 [ -5.54194814e-03  -1.96514488e-03  -1.49839732e-03  -2.00258102e-03
   -2.30891127e-02  -3.98027757e-03   5.23672067e-02  -3.53211327e-03
   -5.32066263e-03  -5.43696387e-03]
 [ -6.61967741e-03   1.58877941e-04  -3.30177927e-03  -2.90314108e-03
   -2.33865660e-02  -5.87153900e-03   5.97049780e-02  -3.83188389e-03
   -7.12075038e-03  -6.82851020e-03]
 [ -9.22501087e-03   1.32039917e-04  -1.64525537e-03  -3.11349984e-03
   -2.16386747e-02  -7.31490226e-03   6.35366589e-02  -4.07749042e-03
   -8.82668700e-03  -7.82720745e-03]
 [ -1.14170192e-02   1.70975842e-03  -1.26975903e-03  -4.12632385e-03
   -1.99471414e-02  -7.17763696e-03   6.47016838e-02  -4.20445716e-03
   -9.86575335e-03  -8.40332825e-03]
 [ -1.18237464e-02  -9.54299758e-04  -4.84936824e-03  -4.10444848e-03
   -1.66334454e-02  -5.29193226e-03   6.59606010e-02  -4.02024761e-03
   -9.82690696e-03  -8.45623016e-03]
 [ -1.06565291e-02  -3.88571853e-03  -7.12002534e-03  -3.43800941e-03
   -1.19555043e-02  -3.52815911e-03   5.93819357e-02  -3.30529758e-03
   -8.51870514e-03  -6.97400467e-03]
 [ -9.07922070e-03  -4.28624405e-03  -1.02785686e-02  -3.22442898e-03
   -9.27823223e-03  -2.97925924e-03   5.38405478e-02  -2.59283092e-03
   -6.63823215e-03  -5.48353791e-03]
 [ -7.62050133e-03  -3.89179494e-03  -1.11022852e-02  -2.95824511e-03
   -5.85793843e-03  -2.65294826e-03   4.56001423e-02  -1.82147231e-03
   -5.57459006e-03  -4.12034942e-03]
 [ -5.19980257e-03  -2.96203443e-03  -8.27378221e-03  -2.08796817e-03
   -3.91098857e-03  -3.08536598e-03   3.21784765e-02  -1.08703726e-03
   -3.17458878e-03  -2.39690719e-03]
 [ -3.11118667e-03  -2.08372995e-03  -6.27448130e-03  -1.49909616e-03
   -3.16750817e-03  -2.60132691e-03   2.32291017e-02  -7.35406415e-04
   -2.19770311e-03  -1.55865320e-03]
 [ -1.73858309e-03  -1.27159583e-03  -4.19675512e-03  -8.58669926e-04
   -2.18001194e-03  -1.50766096e-03   1.44896274e-02  -4.40078089e-04
   -1.37316342e-03  -9.23106563e-04]
 [ -6.72425143e-04  -4.96448134e-04  -1.30108069e-03  -2.54518469e-04
   -1.01772964e-03  -6.33575080e-04   5.32092340e-03  -1.21916673e-04
   -5.17306908e-04  -3.05921014e-04]
 [ -1.87383499e-04  -2.07693927e-04   4.14202921e-04  -6.70843147e-05
   -3.91645735e-04  -3.23453394e-04   1.18360063e-03  -4.66679594e-05
   -2.80726817e-04  -9.31478571e-05]
 [ -2.91661254e-05  -5.89840784e-05   4.75668407e-04  -1.40216398e-05
   -1.23855978e-04  -6.22500011e-05  -2.02519150e-05  -1.26943878e-05
   -1.22678626e-04  -3.17656340e-05]
 [  0.00000000e+00   0.00000000e+00   0.00000000e+00   0.00000000e+00
    0.00000000e+00   0.00000000e+00   0.00000000e+00   0.00000000e+00
    0.00000000e+00   0.00000000e+00]
 [  0.00000000e+00   0.00000000e+00   0.00000000e+00   0.00000000e+00
    0.00000000e+00   0.00000000e+00   0.00000000e+00   0.00000000e+00
    0.00000000e+00   0.00000000e+00]
 [  0.00000000e+00   0.00000000e+00   0.00000000e+00   0.00000000e+00
    0.00000000e+00   0.00000000e+00   0.00000000e+00   0.00000000e+00
    0.00000000e+00   0.00000000e+00]
 [  0.00000000e+00   0.00000000e+00   0.00000000e+00   0.00000000e+00
    0.00000000e+00   0.00000000e+00   0.00000000e+00   0.00000000e+00
    0.00000000e+00   0.00000000e+00]
 [ -6.93684069e-06   7.51894404e-05  -1.36266926e-05  -1.19174993e-05
   -1.04507808e-05  -6.53369943e-06   4.70737120e-07  -5.16190357e-06
   -1.18053968e-05  -9.22730032e-06]
 [  4.93676707e-05   1.74733250e-05  -1.65057609e-05  -6.47460956e-06
   -8.06389871e-05  -2.20941838e-05   1.09254353e-04  -1.31084553e-05
   -1.70419989e-05  -2.02313604e-05]
 [ -8.70902950e-05  -6.50433640e-06  -9.54252755e-05  -1.66901100e-05
   -6.88325163e-05   7.10667591e-05   2.84611335e-04  -3.70818525e-05
   -2.25200092e-05  -2.15337386e-05]
 [ -1.10324705e-03  -1.56342707e-04   7.73087144e-04   1.85344927e-03
   -3.02276516e-04  -8.04716023e-04   3.29579896e-04  -1.56920840e-04
   -2.79129919e-04  -1.53482921e-04]
 [ -2.16131820e-03  -5.97902108e-04   2.45222589e-03   1.38204906e-03
   -1.86630874e-03  -1.01732998e-03   3.86806182e-03  -5.81747619e-04
   -8.73930228e-04  -6.03798428e-04]
 [ -3.72505491e-03  -2.12596310e-03   8.09555873e-03   1.63787673e-03
   -5.36310766e-03  -2.32635951e-03   9.42655001e-03  -1.65015017e-03
   -2.33278819e-03  -1.63656205e-03]
 [ -5.15359594e-03  -5.41895023e-03   1.71324350e-02   2.34730029e-03
   -1.06334249e-02  -3.45205632e-03   1.59140211e-02  -3.44162830e-03
   -4.26836684e-03  -3.02573806e-03]
 [ -1.00900447e-02  -9.42918379e-03   3.39405462e-02   3.12415487e-03
   -1.83762405e-02  -6.43807650e-03   2.64910422e-02  -5.84595138e-03
   -7.94964749e-03  -5.42659638e-03]
 [ -1.39486426e-02  -1.44472439e-02   4.51444685e-02   7.26707838e-03
   -2.75619924e-02  -8.77807010e-03   4.23555449e-02  -8.85922369e-03
   -1.23881157e-02  -8.78379494e-03]
 [ -1.46532618e-02  -1.93391554e-02   5.52683547e-02   1.71243455e-02
   -3.73659432e-02  -1.33328605e-02   5.39490022e-02  -1.11882333e-02
   -1.80665832e-02  -1.23956520e-02]
 [ -1.86293982e-02  -1.83036942e-02   6.14663921e-02   2.51475144e-02
   -4.69553359e-02  -1.50823016e-02   6.39047921e-02  -1.23074688e-02
   -2.33521312e-02  -1.58883855e-02]
 [ -2.19148397e-02  -1.39786825e-02   6.34249896e-02   2.68560424e-02
   -5.30156866e-02  -1.97772738e-02   8.38839486e-02  -1.43319126e-02
   -3.04581318e-02  -2.06884556e-02]
 [ -2.89271381e-02  -1.31184924e-02   5.59994541e-02   3.18521932e-02
   -5.28917275e-02  -2.00637747e-02   1.07526124e-01  -1.57074239e-02
   -3.93406525e-02  -2.53285300e-02]
 [ -3.18768807e-02  -1.29595455e-02   4.93272394e-02   2.66992375e-02
   -4.98758107e-02  -1.65618099e-02   1.23932377e-01  -1.64779983e-02
   -4.40669730e-02  -2.81398371e-02]
 [ -3.32619436e-02  -1.62632111e-02   3.75827849e-02   1.87713690e-02
   -4.17710952e-02  -1.47304451e-02   1.38350919e-01  -1.54474443e-02
   -4.60173339e-02  -2.72135735e-02]
 [ -3.62179801e-02  -2.19235625e-02   1.72969121e-02   1.23010930e-02
   -3.39798816e-02  -8.93032644e-03   1.55251369e-01  -1.35100633e-02
   -4.63456772e-02  -2.39418261e-02]
 [ -3.66264991e-02  -2.34136153e-02  -5.81521774e-03   4.73552896e-03
   -2.70250998e-02  -2.59546726e-03   1.60119221e-01  -1.10402349e-02
   -3.90042178e-02  -1.93343777e-02]
 [ -3.15837376e-02  -2.03843471e-02  -1.67171694e-02  -1.83102675e-05
   -1.76824629e-02  -2.42975308e-03   1.42866969e-01  -7.64604565e-03
   -3.19045782e-02  -1.45005994e-02]
 [ -2.31451560e-02  -1.57948453e-02  -2.10359730e-02  -2.19162041e-03
   -1.06866471e-02  -2.80097406e-03   1.10033967e-01  -5.32521494e-03
   -1.93080287e-02  -9.74552520e-03]
 [ -1.57421753e-02  -9.47316643e-03  -1.79965235e-02  -6.35384163e-03
   -5.57754515e-03  -1.79556839e-03   7.56432712e-02  -3.16006551e-03
   -9.86712147e-03  -5.67727117e-03]
 [ -1.03397071e-02  -5.00356033e-03  -1.26871141e-02  -5.23280958e-03
   -2.40247766e-03   2.46790471e-04   4.42691185e-02  -1.70241972e-03
   -4.36357921e-03  -2.78423610e-03]
 [ -4.76029096e-03  -2.91989115e-03  -7.20174843e-03  -2.59435060e-03
   -4.45929967e-04  -2.05159793e-03   2.27946416e-02  -7.89608515e-04
   -7.86677643e-04  -1.24454265e-03]
 [ -1.81727821e-03  -1.84827100e-03  -2.52804579e-03  -1.11500442e-03
   -9.41363105e-04  -1.78008981e-03   1.14287473e-02  -2.87901436e-04
   -6.96261763e-04  -4.14530950e-04]
 [ -2.54446146e-04  -3.76316981e-04  -5.19095192e-05  -1.86303063e-04
   -1.99344926e-04   4.64107470e-05   1.36189105e-03  -4.74717890e-05
   -2.10997168e-04  -8.15124440e-05]
 [ -2.00820887e-05  -1.19249198e-04  -3.86023021e-05  -1.22193060e-05
   -1.63724962e-05   4.88238402e-05   2.05950142e-04  -4.11731207e-06
   -4.03470876e-05  -3.78421510e-06]
 [  0.00000000e+00   0.00000000e+00   0.00000000e+00   0.00000000e+00
    0.00000000e+00   0.00000000e+00   0.00000000e+00   0.00000000e+00
    0.00000000e+00   0.00000000e+00]
 [  0.00000000e+00   0.00000000e+00   0.00000000e+00   0.00000000e+00
    0.00000000e+00   0.00000000e+00   0.00000000e+00   0.00000000e+00
    0.00000000e+00   0.00000000e+00]
 [ -4.37984937e-08  -4.99658555e-08  -1.49866128e-06   2.77157642e-06
   -1.90538771e-07  -6.34025241e-07  -8.29849967e-08  -1.85750757e-08
   -2.38636659e-07  -1.43734535e-08]
 [ -2.88398551e-05   2.54150247e-04  -8.53326928e-05   1.67610979e-05
   -3.21869047e-05  -5.01354989e-05  -4.14783608e-05  -1.80115967e-05
    9.20271577e-06  -2.41291673e-05]
 [  7.39287862e-05   3.26968984e-05  -8.42402587e-05   3.88400542e-04
   -7.15589995e-05  -2.07890291e-04  -3.91266913e-05   4.22245721e-05
   -7.95660962e-05  -5.48685530e-05]
 [ -4.04866470e-04  -1.07863438e-04  -3.67611385e-04   2.76013534e-03
    3.23215005e-04  -1.30139699e-03   4.07464686e-05  -1.62634286e-04
   -5.56264305e-04  -2.23460243e-04]
 [ -3.20596015e-03  -5.39034663e-04   4.67352103e-03   9.90449917e-03
    4.01585829e-04  -5.41266566e-03  -9.77701508e-04  -1.34108297e-03
   -2.45746924e-03  -1.04568864e-03]
 [ -6.34497637e-03  -2.57700961e-03   1.39864730e-02   1.59901958e-02
   -2.07319157e-03  -8.31497367e-03  -1.98560796e-04  -2.47297832e-03
   -5.36780246e-03  -2.62717716e-03]
 [ -1.00685107e-02  -8.54698382e-03   3.06449197e-02   2.74381619e-02
   -6.45624194e-03  -1.35920290e-02   2.44081509e-03  -5.78286685e-03
   -1.06519852e-02  -5.42527018e-03]
 [ -1.60481781e-02  -1.70953590e-02   5.76604195e-02   4.44302335e-02
   -1.51229836e-02  -2.49670614e-02   8.88068788e-03  -1.07903704e-02
   -1.68259256e-02  -1.01214582e-02]
 [ -2.31147595e-02  -2.63176356e-02   9.43828300e-02   6.07183725e-02
   -2.76670586e-02  -3.09979431e-02   1.47645921e-02  -1.84291303e-02
   -2.50779856e-02  -1.82613079e-02]
 [ -2.84691993e-02  -2.69676112e-02   1.23648517e-01   7.76743516e-02
   -4.51443717e-02  -3.29153575e-02   2.03356277e-02  -2.76153143e-02
   -3.26077640e-02  -2.79389061e-02]
 [ -2.56064013e-02  -1.60949435e-02   1.52207673e-01   8.77965763e-02
   -5.69677129e-02  -3.85038070e-02   1.21843461e-02  -3.78210731e-02
   -3.65248062e-02  -4.06697616e-02]
 [ -1.81150269e-02   1.46636274e-02   1.70001686e-01   8.08642954e-02
   -6.90170154e-02  -5.28758802e-02   1.56142795e-02  -5.03789857e-02
   -3.28675322e-02  -5.78894578e-02]
 [ -9.33386292e-03   4.11476605e-02   1.73778281e-01   6.85263872e-02
   -8.01399797e-02  -6.42002299e-02   2.89522000e-02  -6.14694618e-02
   -2.45864671e-02  -7.26745948e-02]
 [  2.68120063e-03   4.55479510e-02   1.65985256e-01   4.77227569e-02
   -8.61313641e-02  -5.20253703e-02   4.22115102e-02  -6.84594139e-02
   -1.15108127e-02  -8.60216469e-02]
 [  1.51451956e-02   2.58752536e-02   1.48415953e-01   2.83936169e-02
   -8.23474824e-02  -2.87457462e-02   6.45833611e-02  -6.85842037e-02
   -9.41692851e-03  -9.33189914e-02]
 [  3.69467773e-03   9.76957846e-03   1.31294623e-01   5.33668231e-03
   -6.44192770e-02  -7.23283831e-03   1.06443569e-01  -6.40826523e-02
   -2.58718170e-02  -9.49325636e-02]
 [ -6.88479235e-03   1.12078516e-02   8.64271969e-02  -1.05075911e-02
   -5.02981953e-02   5.74468402e-03   1.48890451e-01  -5.52596636e-02
   -4.58513871e-02  -8.34686160e-02]
 [ -1.22638606e-02   1.95238441e-02   3.67551893e-02  -1.30837047e-02
   -3.42706777e-02   1.16353240e-02   1.63054213e-01  -4.49184477e-02
   -5.84601983e-02  -6.79717660e-02]
 [ -1.52445799e-02   4.43308912e-02  -3.79700144e-03  -2.19204817e-02
   -1.57377198e-02   3.74103733e-03   1.52919292e-01  -3.34431976e-02
   -5.84805943e-02  -5.23676947e-02]
 [ -1.84138212e-02   5.62108122e-02  -2.47063451e-02  -3.09875831e-02
    3.40513140e-03   4.55096085e-03   1.20592259e-01  -2.42487341e-02
   -4.83153500e-02  -3.80873270e-02]
 [ -1.92453712e-02   4.65225019e-02  -3.51971351e-02  -3.21550071e-02
    1.12404395e-02   2.65217535e-02   8.47512931e-02  -1.48762716e-02
   -4.18776609e-02  -2.56845709e-02]
 [ -1.54416785e-02   2.50499994e-02  -3.03361788e-02  -2.39750613e-02
    1.62538216e-02   3.35672013e-02   4.92044315e-02  -8.91758781e-03
   -3.01365163e-02  -1.52684357e-02]
 [ -1.25102242e-02   8.14866554e-03  -1.96074173e-02  -1.87533610e-02
    1.44786015e-02   3.12033668e-02   2.47212555e-02  -4.40801075e-03
   -1.54757574e-02  -7.79710663e-03]
 [ -7.60282855e-03  -2.20951275e-03  -8.76405928e-03  -6.95789140e-03
    5.97362593e-03   1.83863603e-02   1.04226451e-02  -1.86527765e-03
   -4.19745967e-03  -3.18560703e-03]
 [ -1.88739563e-03  -1.92385353e-03  -1.53297745e-03  -1.18523126e-03
    7.19672185e-04   5.10234479e-03   2.27931421e-03  -4.54400579e-04
   -2.86948867e-04  -8.30525474e-04]
 [ -2.57588719e-04  -2.61670095e-04  -1.54812849e-04  -7.31306136e-05
   -1.43400830e-04   5.52718877e-04   5.14350540e-05  -6.03342196e-05
    4.90284758e-04  -1.43501296e-04]
 [ -7.13914005e-06  -9.85377628e-05  -6.42849336e-05  -9.06220976e-06
   -5.40836299e-05  -4.36657210e-05   2.32497317e-04  -4.83334543e-06
    5.85963680e-05  -9.48694742e-06]
 [  0.00000000e+00   0.00000000e+00   0.00000000e+00   0.00000000e+00
    0.00000000e+00   0.00000000e+00   0.00000000e+00   0.00000000e+00
    0.00000000e+00   0.00000000e+00]
 [  0.00000000e+00   0.00000000e+00   0.00000000e+00   0.00000000e+00
    0.00000000e+00   0.00000000e+00   0.00000000e+00   0.00000000e+00
    0.00000000e+00   0.00000000e+00]
 [ -4.12673544e-05   3.21370098e-05   1.55006219e-05   1.55571004e-04
   -1.71232841e-05  -1.41262746e-04   4.21927798e-05  -5.67186953e-06
   -3.36038283e-05  -6.47236038e-06]
 [ -1.05107596e-04   1.70773492e-04   2.51271791e-04   3.04749236e-03
   -7.42432312e-05  -1.14361651e-03  -8.65425856e-04  -9.44525455e-05
   -8.94427241e-04  -2.92264391e-04]
 [ -1.92053418e-03  -1.70982807e-04   1.03153952e-03   1.23141585e-02
    8.49462638e-04  -5.36772190e-03  -1.15778961e-03  -1.03215431e-03
   -3.11433990e-03  -1.43163803e-03]
 [ -7.64363771e-03  -2.50705122e-03   1.00331493e-02   3.24866623e-02
    3.61869344e-03  -1.49083305e-02  -5.49936714e-03  -1.37322000e-03
   -8.84428062e-03  -5.36260754e-03]
 [ -1.33393072e-02  -8.99796467e-03   2.87696496e-02   5.39031364e-02
    5.75018814e-03  -2.28103343e-02  -8.95903353e-03  -4.06789035e-03
   -1.73854064e-02  -1.28630260e-02]
 [ -2.33140793e-02  -2.20861007e-02   6.40801266e-02   7.82335252e-02
    1.73067115e-03  -2.81872582e-02  -1.07743358e-02  -9.63280909e-03
   -2.74172910e-02  -2.26324536e-02]
 [ -3.41682509e-02  -4.05928865e-02   1.06180340e-01   1.02109954e-01
   -5.42909326e-03  -3.29427384e-02  -4.53487691e-03  -1.71242468e-02
   -3.64784524e-02  -3.70197482e-02]
 [ -4.08740342e-02  -5.42956926e-02   1.43239990e-01   1.20636426e-01
   -1.28481332e-02  -2.35881712e-02  -6.14907034e-03  -3.05288546e-02
   -3.74609381e-02  -5.81314340e-02]
 [ -3.48207019e-02  -5.15796319e-02   1.69386595e-01   1.31116033e-01
   -3.47557627e-02  -1.01919994e-02  -1.09067392e-02  -5.11464030e-02
   -3.59340385e-02  -7.11673573e-02]
 [ -1.78388730e-02  -2.78236941e-02   1.84600756e-01   1.27314851e-01
   -5.43621480e-02  -6.10407814e-03  -3.61998603e-02  -7.74515718e-02
   -1.13752466e-02  -8.07601511e-02]
 [  3.55640892e-03   1.58230811e-02   1.88118041e-01   1.09550618e-01
   -7.57104382e-02  -1.79326758e-02  -3.56164165e-02  -1.06274106e-01
    2.39757113e-02  -1.05490156e-01]
 [  4.12568487e-02   5.41200452e-02   1.91633523e-01   9.07685533e-02
   -9.40898359e-02  -3.27075161e-02  -4.27835807e-02  -1.35862142e-01
    5.59700839e-02  -1.28306031e-01]
 [  6.77532926e-02   5.54087237e-02   1.89070880e-01   6.86070994e-02
   -9.24190134e-02  -3.56999151e-02  -3.25749330e-02  -1.53793126e-01
    8.94000009e-02  -1.55753061e-01]
 [  8.61038193e-02   2.18602549e-02   1.85756996e-01   5.52254841e-02
   -7.98172131e-02  -2.85160393e-02  -1.09063666e-02  -1.56656846e-01
    1.06631994e-01  -1.79682165e-01]
 [  9.02532190e-02  -1.18472679e-02   1.63409546e-01   3.13356109e-02
   -4.70994152e-02  -9.48186778e-03   2.71127392e-02  -1.49003506e-01
    1.09398052e-01  -2.04077110e-01]
 [  8.12554359e-02  -1.41714951e-02   1.25861511e-01  -9.19316709e-03
   -2.01349501e-02   1.76137984e-02   5.82679585e-02  -1.34157434e-01
    9.08219740e-02  -1.96163669e-01]
 [  5.25437854e-02   2.25114208e-02   6.72938451e-02  -2.45084260e-02
    1.15404492e-02   3.70589867e-02   7.33366087e-02  -1.14623211e-01
    4.46049236e-02  -1.69758484e-01]
 [  2.40356978e-02   6.65524378e-02   7.84023665e-03  -2.85157748e-02
    2.94159725e-02   5.21979481e-02   7.12253526e-02  -9.24888253e-02
    8.16834532e-03  -1.38431475e-01]
 [ -8.57984880e-04   9.13647115e-02  -2.45915502e-02  -3.58159877e-02
    4.08149771e-02   7.88392648e-02   4.55995351e-02  -6.98148906e-02
   -1.73510052e-02  -1.08187139e-01]
 [ -1.21128391e-02   7.86525235e-02  -3.36751901e-02  -5.00816852e-02
    5.00586890e-02   1.00104034e-01   2.36132424e-02  -4.63574231e-02
   -2.90212892e-02  -8.11800733e-02]
 [ -1.94383040e-02   4.24346812e-02  -3.68403383e-02  -5.28077297e-02
    5.99353351e-02   1.16479717e-01   8.85833800e-03  -3.05634663e-02
   -2.84091961e-02  -5.96490689e-02]
 [ -2.54448745e-02   1.31780552e-02  -3.19793522e-02  -4.16359566e-02
    5.45187481e-02   1.05935179e-01   3.53532145e-03  -1.82832573e-02
   -2.19369549e-02  -3.78868878e-02]
 [ -1.86757650e-02  -1.97760644e-03  -1.73346438e-02  -1.88975818e-02
    2.41044983e-02   6.78211823e-02   2.01911922e-03  -8.35665967e-03
   -1.02754310e-02  -1.84271224e-02]
 [ -6.70678029e-03  -4.66416636e-03  -4.35481314e-03  -4.63105645e-03
    3.54721281e-03   2.65917815e-02  -7.59776391e-04  -2.58938735e-03
   -1.03776844e-03  -5.39524294e-03]
 [ -1.50778343e-03  -7.71558203e-04  -7.13503396e-04  -6.17236481e-04
   -8.04948446e-04   6.68372540e-03  -1.36024086e-04  -7.01264362e-04
   -5.74845646e-04  -8.56560131e-04]
 [ -1.63728837e-04  -1.20149547e-04  -9.53595591e-05  -1.78133942e-05
   -2.95364571e-05   2.29469064e-04   3.30091134e-04  -2.53333601e-05
   -9.67846427e-05  -1.08543827e-05]
 [  0.00000000e+00   0.00000000e+00   0.00000000e+00   0.00000000e+00
    0.00000000e+00   0.00000000e+00   0.00000000e+00   0.00000000e+00
    0.00000000e+00   0.00000000e+00]
 [ -4.53733691e-07  -6.69244059e-07  -1.28283318e-06   1.30488970e-05
   -2.95138733e-07  -2.36353253e-06  -1.48403871e-07  -1.09352891e-06
   -1.87970295e-06  -4.86277759e-06]
 [ -6.24763270e-05  -2.33018131e-04  -6.19674101e-05   5.68756950e-04
   -1.40328062e-04  -1.82640681e-04  -6.06501308e-05   6.00527739e-04
   -1.80770046e-04  -2.47433985e-04]
 [ -1.00421160e-03   6.30331633e-05   5.71746379e-04   9.56316665e-03
   -7.59387447e-04  -3.95236351e-03  -2.05813092e-03   1.64815097e-03
   -2.67135934e-03  -1.40064640e-03]
 [ -4.37036622e-03  -1.33870472e-03   2.14724219e-03   3.01598515e-02
    2.29987781e-03  -1.33516490e-02  -4.38736007e-03   1.83305319e-03
   -6.98972773e-03  -6.00222358e-03]
 [ -1.10724084e-02  -7.68117188e-03   1.58018451e-02   5.84199168e-02
    7.68782431e-03  -2.36605816e-02  -1.11973574e-02   6.23115757e-03
   -1.64663754e-02  -1.80628449e-02]
 [ -2.17038207e-02  -2.02682149e-02   4.90661040e-02   8.71171132e-02
    1.09856101e-02  -3.08005642e-02  -2.06536427e-02   1.02834236e-02
   -2.79737748e-02  -3.60522382e-02]
 [ -3.46534327e-02  -4.06280309e-02   9.00357440e-02   1.05705790e-01
    1.31214764e-02  -3.14082652e-02  -2.09713932e-02   1.09200822e-02
   -3.15766856e-02  -6.05452880e-02]
 [ -4.58478630e-02  -6.72460347e-02   1.17400154e-01   1.32519186e-01
    2.58934265e-03  -2.38947980e-02  -2.23978721e-02   1.76601317e-02
   -2.62191612e-02  -8.45631063e-02]
 [ -4.82284129e-02  -9.13366973e-02   1.31821319e-01   1.45413175e-01
   -8.60590488e-03   5.96229685e-04  -2.90373806e-02   1.46249207e-02
   -1.82075631e-02  -9.70397368e-02]
 [ -3.07256300e-02  -9.73961577e-02   1.32219866e-01   1.41351804e-01
   -3.13871689e-02   3.05175204e-02  -4.62598652e-02   2.85464036e-03
   -6.43127505e-03  -9.47438106e-02]
 [ -6.38164813e-03  -7.47325271e-02   1.20578758e-01   1.25910357e-01
   -7.10290074e-02   4.02826518e-02  -6.07779212e-02  -2.72984989e-02
    2.46966928e-02  -7.12487996e-02]
 [  1.95791144e-02  -3.73879299e-02   1.11108594e-01   1.12980045e-01
   -1.05047897e-01   3.17392498e-02  -6.89289942e-02  -7.05887526e-02
    4.49499898e-02  -3.84034924e-02]
 [  5.34585752e-02  -2.72287522e-03   1.07381634e-01   1.11863233e-01
   -1.48311928e-01   1.81869455e-02  -8.53961855e-02  -1.19762354e-01
    4.64159362e-02   1.88870728e-02]
 [  7.33371302e-02  -6.80872612e-03   1.08497486e-01   1.09076492e-01
   -1.90531135e-01   8.61017779e-03  -8.38681981e-02  -1.51245996e-01
    6.51403964e-02   6.77924231e-02]
 [  9.49208587e-02  -4.63176630e-02   1.02470197e-01   1.03116252e-01
   -1.98296681e-01  -1.49115017e-02  -6.61383197e-02  -1.60496637e-01
    9.95327979e-02   8.61206204e-02]
 [  1.17061913e-01  -8.07599500e-02   8.81063715e-02   8.63112733e-02
   -1.57624453e-01  -1.33846104e-02  -5.21776937e-02  -1.51966259e-01
    9.66974571e-02   6.77358955e-02]
 [  1.26755968e-01  -6.93470538e-02   6.64749295e-02   4.75789942e-02
   -9.21008214e-02   2.01184414e-02  -5.28279357e-02  -1.36996806e-01
    7.49256685e-02   1.54185845e-02]
 [  1.04344010e-01  -1.02434848e-02   3.07231266e-02   2.66265664e-02
   -3.08557227e-02   5.60617335e-02  -6.04741946e-02  -1.22428186e-01
    3.91940586e-02  -3.29479352e-02]
 [  6.10671528e-02   4.11976650e-02  -7.25753605e-04   3.53970146e-03
    1.31367780e-02   8.49232078e-02  -5.82449026e-02  -9.83581468e-02
    3.02597396e-02  -7.67954513e-02]
 [  3.12237423e-02   6.03706241e-02  -2.58063450e-02   4.14723391e-03
    4.01182882e-02   1.10022515e-01  -5.97202778e-02  -7.64159486e-02
    1.58530902e-02  -9.97929052e-02]
 [  1.52004678e-02   4.00620811e-02  -3.32252085e-02  -2.18622144e-02
    7.05520585e-02   1.37777850e-01  -5.36365733e-02  -5.30100465e-02
    9.62391961e-03  -1.11482352e-01]
 [  8.57453328e-04   9.05186124e-03  -3.91066819e-02  -5.35162725e-02
    9.18230638e-02   1.72789857e-01  -4.30921651e-02  -4.38869894e-02
    5.89003135e-03  -1.00810200e-01]
 [ -2.38046423e-02  -8.85302573e-03  -4.36133631e-02  -5.51849417e-02
    8.05870742e-02   1.82477280e-01  -3.20290923e-02  -3.30621153e-02
    6.00372348e-03  -7.25208744e-02]
 [ -3.15123312e-02  -1.39810201e-02  -2.43215580e-02  -2.97788829e-02
    3.42292637e-02   1.43427879e-01  -1.80252884e-02  -1.88391786e-02
   -1.51055329e-03  -3.96883152e-02]
 [ -1.49240037e-02  -8.74002278e-03  -7.84673914e-03  -9.62325651e-03
    3.86545365e-03   6.84100762e-02  -7.86302052e-03  -8.04213993e-03
   -9.31871356e-04  -1.43044833e-02]
 [ -4.07435186e-03  -1.58319972e-03  -1.36815419e-03  -1.44986436e-03
    1.44699356e-04   1.81786641e-02  -2.46612192e-03  -2.53378786e-03
   -1.32097816e-03  -3.52690765e-03]
 [ -5.19771653e-04  -8.98528524e-05  -4.68390317e-05  -7.72589192e-05
   -1.60684838e-04   1.88372668e-03  -1.98162277e-04  -1.97815854e-04
   -3.83986335e-04  -2.09355218e-04]
 [  0.00000000e+00   0.00000000e+00   0.00000000e+00   0.00000000e+00
    0.00000000e+00   0.00000000e+00   0.00000000e+00   0.00000000e+00
    0.00000000e+00   0.00000000e+00]
 [ -4.69080624e-05  -4.95460117e-05  -5.89614538e-05   4.70634695e-04
   -5.64591282e-05  -1.06449130e-04  -2.32477960e-05   3.09926458e-04
   -1.77677459e-04  -2.61312118e-04]
 [ -3.31566727e-04  -1.14497976e-04   2.67112337e-04   5.40864596e-04
   -4.78057074e-04  -9.76126175e-04  -2.72917387e-04   2.99502257e-03
   -5.59275097e-04  -1.07055984e-03]
 [ -1.94481993e-03  -1.07210770e-03  -1.13980735e-04   1.29557587e-02
   -7.10508437e-04  -7.45260622e-03  -3.23751359e-03   9.62964259e-03
   -3.32013005e-03  -4.73373570e-03]
 [ -8.16479232e-03  -3.40405572e-03   3.77893052e-03   4.75618429e-02
    2.34649656e-03  -2.43658032e-02  -8.36250186e-03   1.55653832e-02
   -8.35665036e-03  -1.65988207e-02]
 [ -1.57236084e-02  -1.36625925e-02   2.27852575e-02   7.89880306e-02
    7.25206733e-03  -3.52738425e-02  -2.03615334e-02   3.37774754e-02
   -1.72725804e-02  -4.05086949e-02]
 [ -2.87481714e-02  -3.25035006e-02   6.23328909e-02   9.51514989e-02
    4.43174085e-03  -3.68240625e-02  -3.15680988e-02   5.76569214e-02
   -2.10334864e-02  -6.88957348e-02]
 [ -4.09554839e-02  -5.63134514e-02   7.86918476e-02   9.34428051e-02
    5.07085305e-03  -2.42152773e-02  -2.86370758e-02   7.90442452e-02
   -7.79317366e-03  -9.83353108e-02]
 [ -4.86523695e-02  -8.97390544e-02   8.08336586e-02   9.13248882e-02
   -7.73001043e-03   1.45867630e-03  -3.09042037e-02   1.02391839e-01
    8.06806237e-03  -1.07051462e-01]
 [ -3.57175767e-02  -1.17149636e-01   7.18252882e-02   8.01042765e-02
   -2.48115007e-02   3.40495631e-02  -4.24140915e-02   1.14142224e-01
    1.78497117e-02  -9.78781879e-02]
 [ -1.85693000e-02  -1.33787349e-01   6.34435639e-02   6.39574155e-02
   -5.82522117e-02   6.85677603e-02  -6.31154701e-02   1.13372333e-01
    2.68591195e-02  -6.24758676e-02]
 [  5.82471490e-03  -1.27335310e-01   5.90594001e-02   5.57184666e-02
   -1.05504625e-01   7.60496035e-02  -7.64954537e-02   9.06667858e-02
    2.04431284e-02   1.57324388e-03]
 [  2.61715576e-02  -8.26957077e-02   4.69992980e-02   5.18084802e-02
   -1.54600769e-01   5.14932536e-02  -9.24007595e-02   5.56535237e-02
    1.00790225e-02   8.74921679e-02]
 [  4.19000760e-02  -3.70634533e-02   4.55692373e-02   6.00947402e-02
   -2.11215287e-01   1.41334822e-02  -1.03771940e-01   1.24886315e-02
   -9.33332369e-03   1.87197834e-01]
 [  5.90157807e-02  -3.44858542e-02   4.24417108e-02   8.44683126e-02
   -2.91701347e-01  -1.15397898e-02  -9.64832306e-02  -1.77227370e-02
   -2.66127121e-02   2.92619914e-01]
 [  7.79971629e-02  -6.24232478e-02   3.39626446e-02   1.03800334e-01
   -3.22072417e-01  -4.63087335e-02  -8.91644657e-02  -1.85059886e-02
   -1.31571842e-02   3.35872054e-01]
 [  1.06747895e-01  -8.79011378e-02   2.29280312e-02   8.83867517e-02
   -2.60995150e-01  -3.90915498e-02  -1.16190068e-01   7.03197531e-03
   -9.73726716e-03   2.88820535e-01]
 [  1.35330200e-01  -6.57618269e-02   6.67911535e-03   6.49593621e-02
   -1.55733332e-01  -6.72189472e-03  -1.54057190e-01   2.32413169e-02
   -1.99150257e-02   1.71979249e-01]
 [  1.29711047e-01  -2.75307726e-02  -2.42545013e-03   3.88893336e-02
   -7.47843906e-02   2.48735044e-02  -1.77699402e-01   1.88798606e-02
    5.29504102e-03   6.47912547e-02]
 [  9.13410112e-02   8.85436591e-03  -1.07854037e-02   4.60151695e-02
   -2.80151926e-02   5.81868216e-02  -1.69343993e-01   1.17961830e-02
    8.77713226e-03  -1.68260466e-02]
 [  4.56374101e-02   6.66627288e-03  -2.22181175e-02   4.72008325e-02
    5.79938246e-03   8.86788070e-02  -1.42161235e-01   3.43571696e-03
    3.19841728e-02  -6.50232881e-02]
 [  2.81767957e-02  -1.50067229e-02  -2.22756490e-02   1.06920833e-02
    5.14320135e-02   1.30386293e-01  -1.13934964e-01  -1.42986747e-02
    4.58360724e-02  -1.01007365e-01]
 [  2.00998411e-02  -3.16415653e-02  -2.94292886e-02  -3.84768322e-02
    7.48409778e-02   1.78208247e-01  -8.62221643e-02  -2.42983103e-02
    5.00442572e-02  -1.13125123e-01]
 [ -1.00665307e-02  -3.76948677e-02  -4.99442369e-02  -5.83751015e-02
    5.86532205e-02   2.23557591e-01  -5.80914691e-02  -2.84325946e-02
    4.98553701e-02  -8.94614607e-02]
 [ -3.44209000e-02  -3.15228291e-02  -3.32381390e-02  -3.74041460e-02
    1.56457201e-02   2.03612342e-01  -2.89587006e-02  -2.53325943e-02
    2.50306521e-02  -5.34114018e-02]
 [ -2.17986554e-02  -1.45500787e-02  -1.12614920e-02  -1.21509153e-02
   -3.81598924e-03   1.11582622e-01  -1.30625805e-02  -1.36942398e-02
   -1.51551212e-05  -2.12335382e-02]
 [ -5.35092363e-03  -1.89641549e-03  -1.72794575e-03  -1.69475516e-03
   -1.79544324e-03   2.46099681e-02  -2.86765420e-03  -3.27494671e-03
   -1.26543420e-03  -4.73644957e-03]
 [ -1.80907606e-04  -2.59855005e-04  -8.82472741e-05  -7.31179025e-05
   -2.05891934e-04   1.73526735e-03  -3.87105334e-04  -2.01017145e-04
   -7.72446219e-05  -2.61880457e-04]
 [  2.01161136e-04  -9.61108753e-07  -1.66789341e-05  -4.47216763e-07
   -2.01709518e-05  -1.57857369e-06  -6.50969196e-06  -9.94268194e-05
   -2.85159786e-06  -5.25362739e-05]
 [ -9.37333607e-05  -3.41556406e-05   1.27857566e-04  -1.29786262e-04
   -4.55789937e-04  -1.48565581e-04  -4.13002417e-05   1.88769610e-03
   -2.27876473e-04  -8.84345849e-04]
 [ -1.17242255e-03  -2.82704568e-04   9.47772569e-05  -5.23405091e-04
   -1.40180299e-03  -1.66779873e-03  -7.53759814e-04   1.08853569e-02
   -1.32397364e-03  -3.85426753e-03]
 [ -4.19787224e-03  -1.38026115e-03  -1.17806916e-03   1.42460335e-02
   -3.03661800e-03  -1.05212266e-02  -4.55330871e-03   2.59341709e-02
   -3.23350914e-03  -1.20793227e-02]
 [ -1.30661242e-02  -4.79044905e-03   3.58042796e-03   5.25114983e-02
   -1.15613081e-03  -3.23244557e-02  -1.23768272e-02   4.24433798e-02
   -5.34387538e-03  -2.94774398e-02]
 [ -2.22388580e-02  -1.62233841e-02   2.61819921e-02   6.80751950e-02
    1.12122355e-03  -3.88674513e-02  -2.78079081e-02   6.87771142e-02
   -5.04789129e-03  -5.39700165e-02]
 [ -3.24067064e-02  -3.65594551e-02   4.87238280e-02   6.70783594e-02
   -7.37080723e-03  -3.55401374e-02  -3.71980444e-02   9.71708894e-02
    9.01312288e-03  -7.29110315e-02]
 [ -4.03324552e-02  -6.09875172e-02   4.50089276e-02   3.90363000e-02
   -9.25282482e-03  -1.41498465e-02  -3.04908995e-02   1.32314146e-01
    3.36630531e-02  -9.48088989e-02]
 [ -3.84821333e-02  -9.42002833e-02   3.01860925e-02   8.86106491e-03
   -2.45354548e-02   2.67836824e-02  -3.13230604e-02   1.53181508e-01
    4.42360304e-02  -7.47074708e-02]
 [ -2.50502657e-02  -1.25010177e-01   2.09492259e-02  -1.53957698e-02
   -3.48925255e-02   5.36369197e-02  -4.24759351e-02   1.62833557e-01
    6.06793948e-02  -5.52744269e-02]
 [ -6.33110665e-03  -1.49842590e-01   3.02362796e-02  -3.86429057e-02
   -6.92848638e-02   7.31861368e-02  -6.15652911e-02   1.72922835e-01
    5.75599894e-02  -8.23854469e-03]
 [  1.06497733e-02  -1.47371292e-01   2.55415700e-02  -6.06978647e-02
   -9.17607024e-02   7.85775930e-02  -6.87081814e-02   1.70547336e-01
    3.85972261e-02   4.46245745e-02]
 [  3.53908725e-02  -9.79133397e-02   1.08771399e-02  -5.92216253e-02
   -1.34512737e-01   4.59838249e-02  -8.20820853e-02   1.56523809e-01
    2.55997758e-02   9.93543491e-02]
 [  4.54841144e-02  -2.15110648e-02   4.51293401e-03  -2.46794764e-02
   -1.96404010e-01  -5.14484616e-03  -8.31136033e-02   1.35823801e-01
   -1.76009685e-02   1.62633166e-01]
 [  5.55616468e-02   2.25239899e-02   1.72912627e-02   3.87321934e-02
   -2.88765490e-01  -4.12158780e-02  -7.72104114e-02   1.46702498e-01
   -7.48882741e-02   2.01268435e-01]
 [  7.02094808e-02   2.32330337e-02   2.59685591e-02   8.80115628e-02
   -3.13511282e-01  -6.90843090e-02  -1.07757516e-01   1.69382438e-01
   -8.83875340e-02   2.01935455e-01]
 [  1.00887284e-01  -1.63046587e-02   1.89737398e-02   8.87152627e-02
   -2.32428670e-01  -6.41497970e-02  -1.68966785e-01   1.94847435e-01
   -7.66669363e-02   1.55093148e-01]
 [  1.16940506e-01  -1.50589095e-02   9.50261764e-03   7.14082122e-02
   -1.14249267e-01  -4.20792550e-02  -2.25069597e-01   1.91796094e-01
   -7.27425441e-02   7.95520991e-02]
 [  1.21591061e-01  -2.16943529e-02  -4.11296124e-03   6.51959553e-02
   -4.66005616e-02  -1.97559316e-02  -2.55102158e-01   1.51350588e-01
   -2.49537174e-02   3.40821408e-02]
 [  1.01928145e-01  -3.17394175e-02  -4.41081310e-03   6.96603060e-02
   -2.62357909e-02   1.42466146e-02  -2.33490020e-01   1.04305819e-01
    2.38211714e-02  -1.80859901e-02]
 [  7.20050782e-02  -5.35441004e-02  -1.98445078e-02   7.13268369e-02
   -3.28913890e-03   6.33438453e-02  -1.86565191e-01   6.02580607e-02
    4.41284403e-02  -4.78193052e-02]
 [  4.35614586e-02  -7.13436082e-02  -2.24161129e-02   3.40176672e-02
    2.24628467e-02   1.18215673e-01  -1.43821880e-01   1.73739716e-02
    7.26457760e-02  -7.06958920e-02]
 [  4.27494496e-02  -7.29682595e-02  -3.29526477e-02  -1.93628669e-02
    2.96070520e-02   1.70728847e-01  -1.08069651e-01  -6.18927320e-03
    9.00965258e-02  -9.36392322e-02]
 [  1.80888548e-02  -6.24319464e-02  -4.82784659e-02  -5.85151762e-02
    1.28495339e-02   2.37293884e-01  -7.04208687e-02  -2.36133821e-02
    7.70249143e-02  -8.19972605e-02]
 [ -2.49683522e-02  -4.39728610e-02  -4.04912531e-02  -3.99330221e-02
   -1.09348027e-02   2.41518363e-01  -3.87373567e-02  -3.00910678e-02
    3.85009870e-02  -5.08905910e-02]
 [ -2.42505223e-02  -1.98001452e-02  -1.53342318e-02  -1.40118822e-02
   -1.53897721e-02   1.42472461e-01  -1.71045549e-02  -1.77116692e-02
    3.05254734e-03  -2.19222382e-02]
 [ -5.47242770e-03  -2.72217882e-03  -2.14519422e-03  -2.01922073e-03
   -5.18533541e-03   3.04587483e-02  -4.11770120e-03  -4.49181441e-03
    3.24088469e-04  -4.62896889e-03]
 [ -2.61442707e-04  -2.03933916e-04  -9.00468294e-05  -3.64511106e-05
   -2.23629802e-04   1.22249243e-03  -2.32194914e-04  -3.14609148e-04
    4.38810617e-04  -2.98994652e-04]
 [ -1.63662753e-05  -2.24588184e-05  -1.72058008e-05  -3.53292526e-05
   -6.00827370e-05  -2.53196686e-05  -2.15014752e-05   3.37787089e-04
   -3.20472463e-05  -1.07475804e-04]
 [ -1.92720181e-04  -4.79816081e-05  -1.02898819e-04  -2.95479927e-04
   -6.22918713e-04  -2.32303195e-04  -9.08984875e-05   3.08348611e-03
   -2.62734131e-04  -1.23555074e-03]
 [ -1.66182604e-03  -3.51772353e-04   1.31061446e-04  -3.58823745e-04
   -2.28473032e-03  -1.63339591e-03  -1.01892394e-03   1.48874037e-02
   -2.15744902e-03  -5.55154774e-03]
 [ -5.84210129e-03  -1.49759348e-03  -2.14744563e-04   1.24632139e-02
   -7.20212283e-03  -1.05885956e-02  -5.93443681e-03   3.75905335e-02
   -3.44646489e-03  -1.53276790e-02]
 [ -1.51064191e-02  -5.21781715e-03   4.67513176e-03   3.81383412e-02
   -8.59490130e-03  -2.76362393e-02  -1.37696546e-02   6.20168336e-02
   -2.05839082e-04  -3.42994183e-02]
 [ -2.41799112e-02  -1.69166792e-02   2.28659902e-02   3.49013768e-02
   -1.00710467e-02  -3.12628113e-02  -2.79721227e-02   8.63140598e-02
    7.68366316e-03  -4.13625166e-02]
 [ -2.99804043e-02  -3.37188430e-02   1.76074542e-02   1.54269990e-02
   -2.03549247e-02  -1.70458704e-02  -3.06036584e-02   1.01863869e-01
    3.37169766e-02  -3.69116478e-02]
 [ -2.92672738e-02  -5.36354780e-02  -1.29776523e-02  -3.16810943e-02
   -1.67231131e-02   1.45027107e-02  -1.90761555e-02   1.19155779e-01
    6.54685125e-02  -3.57662626e-02]
 [ -2.59472579e-02  -8.46260861e-02  -4.29541394e-02  -8.52474719e-02
   -2.35292837e-02   6.00679182e-02  -1.54312197e-02   1.33336782e-01
    9.44573730e-02  -1.01266708e-02]
 [ -1.09078847e-02  -1.16056331e-01  -4.17043008e-02  -1.26518264e-01
   -2.37829369e-02   8.28961655e-02  -3.32117788e-02   1.39442459e-01
    1.08374968e-01   2.14679912e-02]
 [  7.61950063e-03  -1.40343174e-01  -2.54601277e-02  -1.65187016e-01
   -3.06407958e-02   1.02623880e-01  -4.09835055e-02   1.39738619e-01
    9.33927670e-02   5.92397526e-02]
 [  2.30264273e-02  -1.41100585e-01  -3.44104208e-02  -1.91006750e-01
   -3.00162993e-02   1.23690605e-01  -4.47408222e-02   1.41436040e-01
    6.78141490e-02   8.53075832e-02]
 [  4.95529957e-02  -8.86835232e-02  -5.36163598e-02  -1.59708038e-01
   -5.27702048e-02   8.67120996e-02  -3.79385948e-02   1.45542577e-01
    3.23143452e-02   7.85947293e-02]
 [  6.24694787e-02   2.29226854e-02  -5.66354878e-02  -7.34491721e-02
   -1.32533893e-01   3.11269835e-02  -2.81096790e-02   1.58186316e-01
   -2.70361900e-02   4.30589393e-02]
 [  4.70401011e-02   1.25097573e-01  -2.96041984e-02   3.45936231e-02
   -2.40622357e-01  -2.05785874e-02  -4.17718515e-02   1.94832966e-01
   -9.60214660e-02   2.70342324e-02]
 [  3.40596512e-02   1.48677960e-01   7.51569774e-03   1.09942883e-01
   -2.33252078e-01  -5.71460761e-02  -1.22005031e-01   2.35859886e-01
   -1.32601693e-01   8.94872937e-03]
 [  4.00046892e-02   7.82356560e-02   2.54912153e-02   1.14640400e-01
   -1.16307393e-01  -7.78881013e-02  -2.07073852e-01   2.69541919e-01
   -1.18613712e-01  -8.03079829e-03]
 [  6.42057881e-02   7.11627910e-03   2.17662640e-02   9.17347744e-02
   -1.31265465e-02  -7.83571601e-02  -2.62219191e-01   2.60770619e-01
   -8.47222656e-02  -7.16871163e-03]
 [  9.54339653e-02  -4.09333371e-02   1.16211232e-02   7.49506950e-02
    1.09734870e-02  -6.79894313e-02  -2.70167649e-01   2.03514025e-01
   -2.63138637e-02   8.91107135e-03]
 [  1.06670886e-01  -7.75409117e-02  -3.77336866e-04   7.44816586e-02
   -8.38555489e-03  -3.57804894e-02  -2.36501053e-01   1.46455720e-01
    3.04900631e-02   4.87001496e-04]
 [  8.97085667e-02  -9.92575437e-02  -1.99089404e-02   7.27030337e-02
   -1.06480950e-02   1.07403453e-02  -1.83094367e-01   8.29700977e-02
    6.72592819e-02  -1.04723815e-02]
 [  7.08241686e-02  -9.96279866e-02  -2.69813780e-02   2.62263417e-02
   -7.59084849e-03   7.11498037e-02  -1.34790480e-01   4.43113670e-02
    9.99936685e-02  -4.35146242e-02]
 [  7.37020224e-02  -8.39215219e-02  -3.50173153e-02  -1.79639533e-02
   -1.30187757e-02   1.24802761e-01  -1.01587772e-01   9.03665088e-03
    1.08898982e-01  -6.49310276e-02]
 [  5.68301566e-02  -6.27698228e-02  -4.70413975e-02  -4.49291728e-02
   -2.78339013e-02   1.84135064e-01  -6.23392649e-02  -2.15188004e-02
    8.82331058e-02  -6.27660304e-02]
 [ -1.68498768e-03  -3.90767194e-02  -3.87190953e-02  -3.06620654e-02
   -3.53942215e-02   2.07956821e-01  -3.65077704e-02  -2.65101008e-02
    4.21350561e-02  -4.15369235e-02]
 [ -1.95049010e-02  -1.63689181e-02  -1.36130219e-02  -9.79079865e-03
   -2.22085901e-02   1.27805457e-01  -1.89521108e-02  -1.32086538e-02
    4.34148917e-03  -1.84999257e-02]
 [ -4.64453595e-03  -2.27003871e-03  -1.85904582e-03  -1.42357894e-03
   -5.50922751e-03   2.51695793e-02  -4.82144952e-03  -2.97681824e-03
    2.61912704e-03  -4.28401306e-03]
 [ -2.19187990e-04  -2.52068945e-04  -1.68333150e-04  -5.91356293e-05
   -5.73958270e-04   1.95631874e-03  -3.93456838e-04   4.06759558e-04
   -2.77409970e-04  -4.19527350e-04]
 [ -2.28274366e-05  -2.62899503e-05  -2.19961294e-05  -4.67069185e-05
   -7.60038674e-05  -3.32888667e-05  -2.63069778e-05   4.67265490e-04
   -3.92922811e-05  -1.74553090e-04]
 [ -3.18208913e-04  -4.04634084e-05  -1.07028543e-04  -4.47506900e-04
   -6.46138040e-04  -3.08955001e-04  -1.10471396e-04   3.79248103e-03
   -2.26415868e-04  -1.58729404e-03]
 [ -1.46141776e-03  -3.18534905e-04  -6.80291341e-05  -8.29209283e-04
   -2.81075528e-03  -1.64050690e-03  -1.27341028e-03   1.64888278e-02
   -1.93123275e-03  -6.15573442e-03]
 [ -6.97691739e-03  -1.51345262e-03   1.03615201e-03   8.93304590e-03
   -7.60637084e-03  -8.21175799e-03  -5.39750047e-03   3.86005603e-02
   -4.25473414e-03  -1.46090155e-02]
 [ -1.53487120e-02  -4.55241976e-03  -2.16365745e-03   1.48347495e-02
   -1.06020868e-02  -1.50827682e-02  -1.37763768e-02   6.28108978e-02
    5.55921113e-03  -2.16788519e-02]
 [ -2.15947293e-02  -1.50466571e-02  -5.13910898e-04  -2.57652299e-03
   -1.64221115e-02  -1.44940363e-02  -2.29981132e-02   8.43854547e-02
    1.59763899e-02  -6.71576615e-03]
 [ -2.03579292e-02  -3.04656606e-02  -2.43442282e-02  -4.24598902e-02
   -2.31683757e-02   4.93615307e-03  -1.89187620e-02   8.73667151e-02
    4.90145981e-02   1.83973908e-02]
 [ -1.13777118e-02  -4.74164113e-02  -8.02329257e-02  -1.02743611e-01
   -1.36979241e-02   4.44099233e-02  -2.78238207e-03   8.72520879e-02
    8.55602473e-02   4.10287306e-02]
 [ -1.14075113e-02  -7.40823820e-02  -1.08579926e-01  -1.68710560e-01
   -3.62050440e-03   8.76659900e-02   2.00996944e-03   7.97918066e-02
    1.21061161e-01   7.58719444e-02]
 [  1.95666100e-04  -1.07909933e-01  -1.14877909e-01  -2.21088067e-01
    2.51746476e-02   1.26203209e-01  -1.28015783e-02   8.53358358e-02
    1.29169390e-01   9.05987769e-02]
 [  1.38634508e-02  -1.32244572e-01  -1.18444599e-01  -2.52302825e-01
    4.48325127e-02   1.46606565e-01  -1.26634529e-02   8.43584538e-02
    1.11092500e-01   1.14902005e-01]
 [  4.53104451e-02  -1.39378443e-01  -1.34631813e-01  -2.42159843e-01
    5.70609383e-02   1.73285037e-01  -7.64445774e-03   6.99706748e-02
    8.19541290e-02   9.62332711e-02]
 [  5.51214218e-02  -8.62164050e-02  -1.56155199e-01  -1.59204617e-01
    2.63168477e-02   1.56218573e-01   1.51350917e-02   7.11292103e-02
    5.74497543e-02   2.02052910e-02]
 [  3.82308550e-02   6.14956245e-02  -1.57720193e-01  -1.58804283e-02
   -9.46779847e-02   1.02475189e-01   2.49218959e-02   1.06259674e-01
   -8.49234872e-04  -6.42553493e-02]
 [ -1.90218387e-03   2.36012161e-01  -1.05748691e-01   1.00473069e-01
   -1.99564725e-01   3.52267772e-02  -4.61227894e-02   1.37160808e-01
   -7.44219571e-02  -8.11125413e-02]
 [ -4.57641147e-02   2.71652699e-01  -5.03571369e-02   1.51076809e-01
   -1.46436229e-01  -2.68919636e-02  -1.52204007e-01   1.83677286e-01
   -1.18560202e-01  -6.61931187e-02]
 [ -5.78639843e-02   1.26942009e-01   4.51080501e-04   1.47269398e-01
   -1.14181908e-02  -8.73065814e-02  -2.15571791e-01   2.42549405e-01
   -1.17419757e-01  -2.76316386e-02]
 [ -1.42706092e-02  -6.79123169e-03   1.41753061e-02   1.14447579e-01
    7.62067512e-02  -1.44261137e-01  -2.30349630e-01   2.49107882e-01
   -7.39534795e-02   1.56884342e-02]
 [  4.66908440e-02  -7.63889104e-02   1.30190644e-02   8.63877013e-02
    4.76183742e-02  -1.61773086e-01  -2.15324327e-01   2.07228854e-01
   -8.30439851e-04   5.33718541e-02]
 [  8.51798877e-02  -1.05706125e-01   3.62970447e-03   7.02909678e-02
    2.90513411e-03  -1.46921888e-01  -1.82520613e-01   1.52838200e-01
    5.12331016e-02   6.90716580e-02]
 [  1.02600090e-01  -1.12039566e-01  -1.13876667e-02   4.65168729e-02
   -2.52096597e-02  -1.02576070e-01  -1.28123388e-01   9.73866805e-02
    7.92584419e-02   5.35743050e-02]
 [  1.02991477e-01  -8.99034664e-02  -2.54777540e-02  -2.81092525e-03
   -3.19602899e-02  -5.68068884e-02  -8.21738094e-02   6.00502454e-02
    1.16183892e-01   9.90747754e-03]
 [  1.20349593e-01  -6.33030757e-02  -3.85313891e-02  -3.12572345e-02
   -3.89067829e-02  -1.28406072e-02  -5.21590225e-02   2.02173181e-02
    1.17655821e-01  -2.12246105e-02]
 [  9.91635025e-02  -4.30117957e-02  -4.08207513e-02  -3.27384695e-02
   -4.22963910e-02   5.14718778e-02  -2.98313983e-02  -1.84718296e-02
    8.78370479e-02  -3.13018076e-02]
 [  2.53424495e-02  -2.52767783e-02  -2.74675898e-02  -1.85801443e-02
   -2.96580568e-02   1.00940920e-01  -2.20417827e-02  -1.85135510e-02
    4.30419706e-02  -2.77874619e-02]
 [ -1.23724565e-02  -9.25159175e-03  -8.99376068e-03  -5.47487941e-03
   -1.62430089e-02   7.78637752e-02  -1.48487259e-02  -7.56690279e-03
    9.49494820e-03  -1.26074087e-02]
 [ -3.80804134e-03  -1.52904610e-03  -1.01264101e-03  -8.33575788e-04
   -4.20236494e-03   1.87801216e-02  -4.52825893e-03  -1.70337385e-03
    2.21202406e-03  -3.37483920e-03]
 [ -1.19394062e-04  -1.08086402e-04  -1.47108614e-04  -4.68232756e-05
   -2.55330408e-04   9.70710593e-04  -5.19387948e-04   5.97844046e-05
    6.48719259e-04  -4.83083597e-04]
 [ -1.30718709e-05  -3.96116866e-06  -6.51657228e-06  -2.00856666e-05
   -2.37571621e-05  -1.84340061e-05  -6.27268855e-06   2.37396773e-04
   -1.18384269e-05  -1.33459223e-04]
 [ -1.12776106e-04   2.10867270e-07  -6.53665993e-05  -4.87223180e-04
   -8.62369663e-04  -4.80485760e-04  -1.73133667e-04   4.11609607e-03
   -2.40267356e-04  -1.69468508e-03]
 [ -1.93090411e-03  -2.31529382e-04  -5.27296506e-04  -1.11681782e-03
   -4.11931006e-03  -1.88127288e-03  -8.44317663e-04   1.85168292e-02
   -1.60780828e-03  -6.25757128e-03]
 [ -6.84235757e-03  -9.65634303e-04  -1.23332220e-03   3.84590798e-03
   -6.92810677e-03  -6.13882579e-03  -4.96197352e-03   3.61327194e-02
   -4.02160175e-03  -8.88680387e-03]
 [ -1.85849797e-02  -3.01977643e-03  -8.42386577e-03  -7.87520315e-04
   -1.18348505e-02  -7.14541273e-03  -1.19258584e-02   5.65729141e-02
    2.97168596e-03   2.17765803e-03]
 [ -1.76831186e-02  -1.08605931e-02  -3.21899503e-02  -2.94771660e-02
   -1.40328491e-02  -5.03436371e-04  -1.40959267e-02   6.08607307e-02
    2.05866490e-02   3.73956561e-02]
 [ -1.75159425e-04  -2.61616539e-02  -8.47095102e-02  -7.98612684e-02
   -8.68490618e-03   2.49688365e-02  -3.54851247e-03   5.86593412e-02
    4.61571887e-02   7.33556822e-02]
 [  1.07180746e-02  -4.49383110e-02  -1.43582255e-01  -1.45766944e-01
    8.60989373e-03   5.97360060e-02   1.63510572e-02   5.18802628e-02
    8.11056569e-02   1.05886601e-01]
 [  6.35968149e-03  -7.23348558e-02  -1.75967500e-01  -2.02208534e-01
    4.51738313e-02   9.62473378e-02   1.86751094e-02   3.90035324e-02
    1.12198070e-01   1.32853225e-01]
 [  8.07297137e-03  -1.09944612e-01  -1.90350458e-01  -2.30858609e-01
    9.37102064e-02   1.36180729e-01   1.57310739e-02   3.33849676e-02
    1.18577793e-01   1.25495851e-01]
 [  3.36685851e-02  -1.43467948e-01  -2.10833013e-01  -2.19549954e-01
    1.41830295e-01   1.77428886e-01   1.36796338e-02   1.28419772e-02
    8.39942023e-02   1.10407241e-01]
 [  5.29139228e-02  -1.63497135e-01  -2.37263665e-01  -1.60887927e-01
    1.40325531e-01   2.24438906e-01   3.40696797e-02  -9.85775888e-03
    7.83759356e-02   4.13824171e-02]
 [  2.99356896e-02  -1.07640304e-01  -2.50700235e-01  -4.77035902e-02
    5.61758056e-02   2.25435004e-01   6.70739189e-02  -1.49471508e-02
    1.07187942e-01  -6.48172200e-02]
 [ -2.15782430e-02   9.03617963e-02  -2.32278794e-01   8.13244879e-02
   -1.03448674e-01   1.67105094e-01   3.74314710e-02  -6.17292360e-04
    8.65109339e-02  -1.04810812e-01]
 [ -9.59113762e-02   3.42922658e-01  -1.74921855e-01   1.54803395e-01
   -1.67571917e-01   6.18932173e-02  -7.73408934e-02   1.23038106e-02
    1.56678259e-02  -7.18448982e-02]
 [ -1.55523568e-01   3.50298375e-01  -9.74541754e-02   1.76516905e-01
   -7.39577562e-02  -3.40687931e-02  -1.68317646e-01   7.03898668e-02
   -5.71697615e-02  -1.07135503e-02]
 [ -1.66333422e-01   1.15294270e-01  -3.55368890e-02   1.43387422e-01
    8.77405703e-02  -1.18141830e-01  -1.66610420e-01   1.59288391e-01
   -6.73122481e-02   4.82241102e-02]
 [ -1.10424593e-01  -4.74657789e-02  -2.58198585e-02   1.09244309e-01
    1.33395851e-01  -1.92275256e-01  -1.50798038e-01   1.99544147e-01
   -2.87836865e-02   1.13382898e-01]
 [ -2.69264188e-02  -9.91000086e-02  -1.08606610e-02   7.33093694e-02
    6.65669441e-02  -2.26741567e-01  -1.29837126e-01   1.82395697e-01
    2.11202931e-02   1.50073588e-01]
 [  5.17752990e-02  -1.11565165e-01   1.38547225e-02   3.55734080e-02
   -2.87613133e-04  -2.35558122e-01  -1.02784202e-01   1.26851156e-01
    6.30971864e-02   1.59043312e-01]
 [  9.44848806e-02  -9.05797705e-02  -5.88243734e-03  -5.52711776e-04
   -3.97214368e-02  -2.13901654e-01  -5.05526140e-02   8.67265090e-02
    9.13814157e-02   1.28597811e-01]
 [  1.25603095e-01  -5.96038215e-02  -2.68317759e-02  -4.22682390e-02
   -4.45470028e-02  -1.70183793e-01  -1.74739724e-03   4.83339876e-02
    1.10326067e-01   6.09188192e-02]
 [  1.50125697e-01  -3.75777967e-02  -4.66662534e-02  -4.56914268e-02
   -4.65166792e-02  -1.24809384e-01   2.09232196e-02   1.43833123e-02
    1.01193145e-01   1.46361962e-02]
 [  1.28420636e-01  -2.23690961e-02  -4.38844636e-02  -3.06995623e-02
   -3.77800241e-02  -5.78074977e-02   2.18209196e-02  -1.44792367e-02
    7.10340515e-02  -1.42557798e-02]
 [  4.63128127e-02  -1.17696272e-02  -1.90245584e-02  -1.29329674e-02
   -2.09590420e-02   4.19822522e-03   1.12044369e-03  -1.22937402e-02
    4.12179269e-02  -1.58694722e-02]
 [ -4.71935514e-03  -4.05976828e-03  -2.34206137e-03  -2.38024327e-03
   -7.89607782e-03   2.63613891e-02  -6.66818488e-03  -4.39443951e-03
    1.32116126e-02  -7.11287046e-03]
 [ -1.99293741e-03  -8.54206621e-04  -3.11993121e-04  -4.70899831e-04
   -1.57403294e-03   7.45045068e-03  -3.56383226e-03  -1.38444547e-03
    5.05674211e-03  -2.35484447e-03]
 [ -6.75649135e-05   6.54469186e-05  -5.93249242e-05  -3.38051977e-05
   -1.16754680e-04   3.64430627e-04  -1.80956646e-04  -3.63003637e-05
    2.59329099e-04  -1.94499895e-04]
 [ -1.34452102e-06  -8.16695973e-08  -8.73151976e-07  -2.56694693e-06
   -2.72233115e-06  -2.16878402e-06  -2.23040985e-07   1.23228994e-04
   -2.35037874e-06  -1.10898167e-04]
 [ -9.57030206e-05  -1.44289079e-05  -2.54693277e-05  -4.52637876e-04
   -9.12505435e-04  -3.98235017e-04  -1.60855765e-04   3.37798148e-03
   -1.29170643e-04  -1.18897599e-03]
 [ -1.57511432e-03  -2.54367129e-04  -3.62660008e-04  -1.99445290e-03
   -3.45359021e-03  -1.55691686e-03  -7.17109011e-04   1.50933405e-02
   -9.85361985e-04  -4.19377116e-03]
 [ -6.84520602e-03  -4.97856992e-04  -4.39089490e-03  -2.21655914e-03
   -6.86293840e-03  -3.35750030e-03  -4.37711319e-03   3.19537446e-02
   -2.04230915e-03  -1.36336510e-03]
 [ -1.84279680e-02  -2.27509881e-03  -1.46473059e-02  -9.29889828e-03
   -1.17114168e-02  -2.02191924e-03  -1.25666447e-02   4.79620360e-02
   -2.06537195e-03   2.50525866e-02]
 [ -2.72319629e-03  -9.75630246e-03  -6.10964000e-02  -3.94343026e-02
   -1.83555554e-03   8.22778326e-03  -1.10579627e-02   4.38669361e-02
    7.72228464e-03   6.60867617e-02]
 [  2.76835021e-02  -2.24611703e-02  -1.32078499e-01  -8.95079970e-02
    2.71399878e-02   3.27620022e-02   1.20962448e-02   2.53306646e-02
    1.44206453e-02   1.04614623e-01]
 [  3.25460061e-02  -4.21499126e-02  -1.87746227e-01  -1.42666742e-01
    6.61553666e-02   6.46149591e-02   3.31229717e-02   2.42500994e-02
    2.61842404e-02   1.25689179e-01]
 [  1.87915862e-02  -7.31349140e-02  -2.11171091e-01  -1.74865097e-01
    1.21162921e-01   1.03700891e-01   3.76348309e-02   1.20231248e-02
    3.86705808e-02   1.27187058e-01]
 [  3.13636288e-02  -1.14278130e-01  -2.28587583e-01  -1.63431466e-01
    1.72402605e-01   1.36882648e-01   3.80055495e-02  -3.12625691e-02
    4.09675762e-02   1.17937721e-01]
 [  6.54786974e-02  -1.64377868e-01  -2.52628714e-01  -1.20946720e-01
    2.22575605e-01   2.13889703e-01   3.98765430e-02  -9.07672569e-02
    1.52804591e-02   7.16195405e-02]
 [  4.83371504e-02  -1.97230443e-01  -2.65351057e-01  -4.78199348e-02
    1.88384995e-01   2.77926415e-01   8.79116356e-02  -1.31537914e-01
    5.66504225e-02  -1.72713865e-02]
 [ -5.51069062e-03  -1.32813811e-01  -2.55569577e-01   6.15623742e-02
    5.98855317e-02   2.59787977e-01   9.16976556e-02  -1.55750036e-01
    1.54486984e-01  -7.77764693e-02]
 [ -9.86248925e-02   1.28021076e-01  -2.27384761e-01   1.46105289e-01
   -8.47859383e-02   1.67958111e-01   1.08695459e-02  -1.69260904e-01
    1.71225205e-01  -4.41228859e-02]
 [ -1.91740036e-01   4.27512139e-01  -1.83579698e-01   1.82734385e-01
   -1.28711790e-01   4.42060158e-02  -1.00690007e-01  -1.46110907e-01
    7.22364038e-02   2.41434257e-02]
 [ -2.41864860e-01   3.44723701e-01  -1.17271401e-01   1.57209128e-01
   -2.20566839e-02  -5.32166138e-02  -1.15713976e-01  -4.72841486e-02
    8.15349165e-03   8.73213708e-02]
 [ -2.45134920e-01   5.56068309e-02  -7.84862339e-02   1.21926300e-01
    1.32548943e-01  -1.35838330e-01  -7.36814067e-02   9.11153480e-02
    6.40834449e-04   1.31302506e-01]
 [ -1.83645383e-01  -9.48780477e-02  -6.00712970e-02   7.91422352e-02
    1.53162524e-01  -1.74882278e-01  -6.03280813e-02   1.53726980e-01
    4.82657319e-03   1.82946786e-01]
 [ -8.28057006e-02  -1.25528589e-01  -2.45487634e-02   3.27534936e-02
    7.32318014e-02  -1.90539211e-01  -5.45980595e-02   1.40398383e-01
    2.13605743e-02   2.10276008e-01]
 [  1.07818954e-02  -1.06809646e-01   7.34983664e-03  -1.79911293e-02
    4.22510784e-03  -2.01052472e-01  -3.56706679e-02   9.31560472e-02
    5.00699133e-02   1.95941001e-01]
 [  6.83739111e-02  -6.95815384e-02  -1.21272989e-02  -4.88286912e-02
   -2.59844791e-02  -1.93652317e-01   1.47370128e-02   5.77110127e-02
    7.24989250e-02   1.36853516e-01]
 [  1.22486852e-01  -4.23981696e-02  -3.92112322e-02  -6.58956841e-02
   -2.94624083e-02  -1.76497236e-01   6.77366331e-02   1.93524677e-02
    7.58425519e-02   6.80462569e-02]
 [  1.67067587e-01  -2.60711312e-02  -6.11884333e-02  -5.14408275e-02
   -3.21507789e-02  -1.48893803e-01   8.05190429e-02  -1.71260897e-03
    5.26491627e-02   2.12217309e-02]
 [  1.45073190e-01  -1.37951300e-02  -5.73258102e-02  -3.07808220e-02
   -2.66213920e-02  -9.80286375e-02   6.82236031e-02  -1.53011288e-02
    3.51234488e-02  -6.56733662e-03]
 [  6.04121163e-02  -6.63973391e-03  -1.68098677e-02  -1.10954838e-02
   -9.78686661e-03  -4.21602726e-02   2.77242810e-02  -9.42912232e-03
    2.14666501e-02  -1.36816818e-02]
 [  1.57309303e-04  -1.79088674e-03   4.31470433e-03  -1.07698666e-03
   -1.32476701e-03  -7.27194769e-04  -1.86452176e-03  -8.42810841e-04
    8.13442748e-03  -4.97927330e-03]
 [ -9.57730401e-04  -5.88540628e-04   2.76743551e-03  -1.83456417e-04
   -5.83946065e-04   1.56954455e-03  -3.13909608e-03   1.54274472e-04
    2.46976921e-03  -1.50825398e-03]
 [ -3.41557825e-05   7.64464494e-05   1.52673019e-04  -2.19198373e-05
   -1.22573823e-04  -6.53420211e-05  -8.22793736e-05   2.35806670e-04
   -5.42807538e-05  -8.43745147e-05]
 [ -5.05716571e-08   8.39641052e-06  -1.12769817e-06  -1.97840313e-06
   -1.45313436e-07  -4.40597887e-07  -5.76667048e-07  -8.61704677e-07
   -1.83071222e-06  -1.38473081e-06]
 [  8.27513068e-05  -9.46068940e-06  -2.64370919e-05  -2.58623593e-04
   -5.35385159e-04  -1.75946552e-04  -1.47699568e-04   1.63435598e-03
   -5.48361095e-05  -5.08718484e-04]
 [ -1.09705166e-03  -1.24004102e-04  -1.05101535e-04  -1.11682306e-03
   -1.91636209e-03  -7.95325206e-04  -3.68385721e-04   8.38921126e-03
   -3.73271672e-04  -2.49288883e-03]
 [ -6.32944237e-03  -2.18024186e-04  -4.97065904e-03  -2.10419460e-03
   -4.22603590e-03  -1.45917712e-03  -3.26763093e-03   2.06113681e-02
   -1.62843603e-03   3.59222386e-03]
 [ -1.23763336e-02  -2.24047783e-03  -2.18045339e-02  -1.09876096e-02
   -1.67989603e-03   7.45002239e-04  -1.25342654e-02   2.99295671e-02
   -8.36412981e-03   3.93126756e-02]
 [  1.99835114e-02  -9.83632915e-03  -7.85198435e-02  -3.86433229e-02
    2.54325196e-02   7.66108278e-03  -6.55595399e-03   1.98954903e-02
   -1.81274097e-02   7.87102506e-02]
 [  5.34749329e-02  -2.23890133e-02  -1.44579455e-01  -8.04876387e-02
    8.08270574e-02   1.80311818e-02   2.34240312e-02   2.42397131e-04
   -3.27844433e-02   1.04240879e-01]
 [  6.29310608e-02  -4.27861959e-02  -1.85118839e-01  -1.19321592e-01
    1.38232082e-01   5.09647727e-02   4.00292948e-02  -1.40992329e-02
   -4.61084470e-02   1.15277074e-01]
 [  4.90179174e-02  -7.24667087e-02  -1.91611111e-01  -1.27395064e-01
    1.87319353e-01   8.69640857e-02   5.45741878e-02  -4.26693037e-02
   -5.35499230e-02   1.09816626e-01]
 [  7.14503303e-02  -1.24133736e-01  -1.93132654e-01  -1.08066544e-01
    2.31097668e-01   1.47517353e-01   5.84493503e-02  -1.08609460e-01
   -6.14902638e-02   8.69179666e-02]
 [  8.17726627e-02  -1.88281760e-01  -1.93572864e-01  -7.02462047e-02
    2.65113443e-01   2.29920328e-01   8.29198882e-02  -1.83633700e-01
   -6.32425025e-02   3.92507911e-02]
 [  2.66603157e-02  -2.24141255e-01  -1.72386959e-01   1.48453601e-02
    2.03479320e-01   2.57263571e-01   1.13974489e-01  -2.49150053e-01
    4.73524556e-02  -1.78971849e-02]
 [ -6.73886985e-02  -1.44184619e-01  -1.49042085e-01   1.18124560e-01
    6.66428432e-02   2.21557885e-01   7.29482993e-02  -2.85211235e-01
    1.85487002e-01  -1.89339072e-02]
 [ -1.84506103e-01   1.96929082e-01  -1.29997358e-01   1.53371289e-01
   -4.87692915e-02   1.21434093e-01  -2.89712790e-02  -3.03357780e-01
    1.93439856e-01   3.04274466e-02]
 [ -2.54630059e-01   4.40483034e-01  -1.15971997e-01   1.27335966e-01
   -7.70898610e-02   1.05819134e-02  -7.09459260e-02  -2.46495590e-01
    9.21954587e-02   9.45370942e-02]
 [ -2.88257807e-01   2.90932864e-01  -1.07959174e-01   8.32243934e-02
    1.99429933e-02  -8.36921036e-02  -1.99828204e-02  -9.71098915e-02
    6.84744120e-02   1.34427011e-01]
 [ -2.82779515e-01  -2.14090273e-02  -9.36093554e-02   8.13001916e-02
    1.55552730e-01  -1.29919499e-01   1.44451130e-02   5.73512129e-02
    3.50182690e-02   1.84049964e-01]
 [ -2.18582898e-01  -1.51332036e-01  -6.27715960e-02   5.59920110e-02
    1.79346949e-01  -1.24408431e-01  -1.09900860e-03   1.15823515e-01
   -1.32641718e-02   2.20295638e-01]
 [ -1.13087691e-01  -1.45216361e-01  -3.82749103e-02   2.30684709e-02
    1.00595184e-01  -1.03515029e-01  -1.57607980e-02   1.06553353e-01
   -2.45951209e-02   2.10232973e-01]
 [ -1.98423490e-02  -9.95292962e-02  -2.08670180e-02  -2.37926487e-02
    4.00369801e-02  -1.00663193e-01   5.40779810e-03   7.85031170e-02
   -1.75669752e-02   1.58313513e-01]
 [  4.58951406e-02  -6.22319654e-02  -3.24483514e-02  -4.89401631e-02
    2.32433360e-02  -1.08895786e-01   4.95619401e-02   4.51054871e-02
    1.58139691e-03   8.71289670e-02]
 [  1.12691574e-01  -3.95617373e-02  -5.53861335e-02  -5.17934896e-02
    1.44224823e-03  -1.20789193e-01   1.07393146e-01   1.23866564e-02
    3.95504478e-03   2.96619590e-02]
 [  1.63039669e-01  -2.43983697e-02  -7.06095397e-02  -4.96339016e-02
   -1.23081412e-02  -1.12005517e-01   1.20341584e-01  -5.68328425e-03
   -1.81132776e-03  -6.93128444e-03]
 [  1.42081454e-01  -1.47644384e-02  -5.74749485e-02  -3.18221487e-02
   -1.31276706e-02  -8.63902643e-02   9.90241021e-02  -1.09239183e-02
   -3.72332358e-03  -2.28788536e-02]
 [  6.26624748e-02  -8.02728161e-03  -1.50602274e-02  -1.28127933e-02
   -8.48421734e-03  -3.96517962e-02   4.75025624e-02  -5.42584900e-03
   -1.54474773e-03  -1.91581491e-02]
 [  2.64035468e-03  -2.72291480e-03   1.14585087e-02  -1.93073414e-03
   -7.87356577e-04  -4.79035173e-03   8.62734567e-04   3.22713662e-04
    1.01135706e-03  -6.06431067e-03]
 [ -4.62599361e-04  -8.40267690e-04   6.45941868e-03  -2.41777263e-04
   -4.99563583e-04  -2.70483841e-04  -2.84498348e-03  -6.86324493e-05
    1.84469012e-04  -1.41558039e-03]
 [ -9.30346214e-05  -6.49468639e-05   1.54827058e-03  -1.07086220e-04
   -1.72864951e-04  -1.92752166e-04  -4.95093816e-04  -1.20731609e-04
   -1.70683750e-04  -1.31076711e-04]
 [ -1.25492325e-05  -4.51152459e-07  -1.72583850e-06  -9.96308372e-05
   -3.55282873e-06   2.17528141e-04  -1.09664052e-05  -4.56829457e-06
   -2.40610261e-05  -6.00224666e-05]
 [ -4.95220447e-05  -5.40105339e-06  -1.25236795e-04   1.13885028e-04
   -2.30420177e-04  -1.04459410e-04  -4.08743617e-05   6.93553826e-04
   -6.42392260e-05  -1.87285827e-04]
 [ -7.03485857e-04  -4.03609120e-05  -1.78674381e-04  -4.20969736e-04
   -9.34964104e-04  -4.50197404e-04  -1.74118322e-04   4.22182633e-03
   -2.13321488e-04  -1.10573473e-03]
 [ -6.58417819e-03   9.58531964e-05  -4.29452490e-03  -7.71733103e-05
   -1.39347685e-04  -1.49461953e-03  -2.45319866e-03   1.10250777e-02
   -2.01534061e-03   5.93745476e-03]
 [ -7.78173516e-03  -2.20065657e-03  -1.93724707e-02  -6.04309561e-03
    1.50699560e-02  -2.29384052e-03  -1.54654467e-02   1.39459744e-02
   -1.18628452e-02   3.60041708e-02]
 [  4.34346646e-02  -1.12711862e-02  -7.24272728e-02  -3.12228929e-02
    5.93406782e-02  -1.06356200e-02  -8.65395926e-03   6.49384735e-03
   -3.39101851e-02   5.88519461e-02]
 [  7.92646185e-02  -2.47526169e-02  -1.12124719e-01  -6.93210661e-02
    1.31061524e-01  -1.70669053e-02   2.08108388e-02  -1.67568829e-02
   -6.93101659e-02   7.81953782e-02]
 [  9.56878215e-02  -4.62790132e-02  -1.22623116e-01  -9.66456831e-02
    1.94891721e-01  -4.40423889e-03   4.52032238e-02  -4.31574211e-02
   -1.06575660e-01   8.39023143e-02]
 [  9.13220048e-02  -7.66722187e-02  -1.12024181e-01  -1.06026642e-01
    2.31034011e-01   4.39705066e-02   6.56048059e-02  -8.98656920e-02
   -1.31186247e-01   8.38435590e-02]
 [  1.06979705e-01  -1.30732238e-01  -9.65440050e-02  -9.24508572e-02
    2.46097684e-01   1.21324040e-01   8.95841792e-02  -1.62903875e-01
   -1.44923419e-01   6.35687187e-02]
 [  8.62426013e-02  -1.95821628e-01  -6.81086481e-02  -5.77480905e-02
    2.44022176e-01   1.80331662e-01   1.17406487e-01  -2.38079295e-01
   -9.72078741e-02   2.89625041e-02]
 [ -9.97647364e-03  -2.26292267e-01  -3.15449350e-02   1.55545026e-02
    1.86256856e-01   1.76641643e-01   1.27912879e-01  -2.92320907e-01
    4.62380275e-02   7.53043033e-03]
 [ -1.35472298e-01  -9.58116353e-02  -7.90238194e-03   9.21408981e-02
    9.26957205e-02   1.39980465e-01   5.03112972e-02  -3.23160350e-01
    1.70661688e-01   1.65566821e-02]
 [ -2.40414113e-01   2.61641085e-01  -6.07030094e-03   8.06913152e-02
    5.24572469e-03   4.95892949e-02  -3.24585587e-02  -3.30040395e-01
    1.81144595e-01   3.06712035e-02]
 [ -2.91167378e-01   4.08504009e-01  -3.39640789e-02   4.61096130e-02
   -1.36629445e-02  -4.15122993e-02  -6.32812129e-03  -2.35631928e-01
    1.17718503e-01   4.99348231e-02]
 [ -3.06393147e-01   2.21522063e-01  -6.01949133e-02   2.34027803e-02
    7.90520906e-02  -1.02403514e-01   4.98336852e-02  -6.42786250e-02
    7.00670108e-02   8.93925056e-02]
 [ -2.88551003e-01  -1.02228872e-01  -4.99695614e-02   3.44421379e-02
    2.05184132e-01  -1.23136394e-01   6.10331371e-02   6.84599504e-02
    1.46179441e-02   1.80148497e-01]
 [ -2.03602508e-01  -1.96269736e-01  -5.04263751e-02   4.44771275e-02
    2.22922668e-01  -9.96527523e-02   1.18286218e-02   1.19072475e-01
   -5.32534122e-02   2.04903767e-01]
 [ -1.01084352e-01  -1.52985200e-01  -3.72075550e-02   4.43133786e-02
    1.50793806e-01  -5.55651039e-02  -8.27424135e-03   1.23644650e-01
   -1.01677679e-01   1.38042256e-01]
 [ -1.55808059e-02  -1.02458924e-01  -3.99708189e-02   2.28551943e-02
    1.07499145e-01  -4.08174805e-02   1.82870850e-02   1.00730799e-01
   -1.04902864e-01   5.43586574e-02]
 [  4.78216261e-02  -6.65851384e-02  -4.81504314e-02   1.90208596e-03
    7.12150857e-02  -4.42863554e-02   6.79355860e-02   5.53711802e-02
   -8.41807872e-02  -1.04283332e-03]
 [  1.03242479e-01  -4.30917367e-02  -6.22969270e-02  -9.46820434e-03
    2.64851246e-02  -6.77574426e-02   1.17592864e-01   2.68608257e-02
   -5.66113181e-02  -3.49556729e-02]
 [  1.39497086e-01  -2.81691160e-02  -6.57908842e-02  -3.21398973e-02
    5.88933472e-03  -7.12917224e-02   1.31331906e-01   9.88095626e-03
   -4.35140394e-02  -4.56937253e-02]
 [  1.27073601e-01  -1.77942179e-02  -4.54193316e-02  -2.88952049e-02
    1.04710087e-03  -6.02699928e-02   1.01633333e-01  -1.78415037e-03
   -3.17713395e-02  -4.38198112e-02]
 [  6.07424043e-02  -8.85310862e-03  -7.26607349e-03  -1.40453195e-02
   -4.62773675e-03  -2.90092099e-02   4.84610647e-02  -4.78683785e-03
   -1.44945951e-02  -2.61205882e-02]
 [  2.37060781e-03  -3.49730393e-03   1.77568477e-02  -3.45771364e-03
   -2.53123580e-03  -5.31184534e-03   3.84599855e-03  -1.16729432e-04
   -2.24112673e-03  -6.81749778e-03]
 [ -3.89030582e-04  -7.63604592e-04   9.45757888e-03  -7.04857986e-04
   -1.04272331e-03  -5.92306023e-04  -3.88130802e-03  -2.61429581e-04
   -1.02333666e-03  -7.98982801e-04]
 [ -9.54509323e-06  -1.42880554e-05   3.03329609e-04  -7.78236645e-05
   -1.85037497e-05  -2.49772183e-05  -1.03109218e-04  -3.80758343e-06
   -4.20651704e-05  -9.20988987e-06]
 [ -4.68251073e-06  -1.64953349e-07  -5.78320567e-07  -3.29226714e-05
   -2.15351542e-06   6.90925299e-05  -3.72750719e-06   5.06275728e-06
   -8.37997686e-06  -2.15458131e-05]
 [ -2.43434642e-05  -1.69848590e-06  -1.69006060e-04   3.45336419e-04
   -1.02885697e-05  -4.32052111e-05  -3.76711682e-06  -1.02366548e-05
   -7.56062800e-05  -7.18460979e-06]
 [ -4.36284434e-04   8.08599798e-05  -4.25543898e-04   1.15027453e-03
   -8.47702613e-05  -3.07622220e-04  -1.58653536e-04   1.35055045e-03
   -3.08615505e-04  -8.60194559e-04]
 [ -7.48458598e-03  -1.57686794e-04  -6.00613770e-04   3.89691978e-03
    3.39119066e-03  -1.49387645e-03  -3.96278827e-03   4.52247122e-03
   -2.53837835e-03   4.42734640e-03]
 [  4.96999826e-04  -3.15851369e-03  -4.98557230e-03   4.66714101e-03
    1.81562342e-02  -8.43862817e-03  -2.06782967e-02   3.73636396e-03
   -1.32696731e-02   2.34739445e-02]
 [  6.54795542e-02  -1.45078152e-02  -2.66766995e-02  -1.64847914e-02
    7.09650442e-02  -3.50810438e-02  -1.71938799e-02  -1.12906136e-02
   -4.47021164e-02   2.94923950e-02]
 [  9.87870246e-02  -3.13024372e-02  -3.87655050e-02  -4.98585217e-02
    1.40885815e-01  -5.64851984e-02   1.32415723e-02  -2.86378916e-02
   -8.34158659e-02   3.55509669e-02]
 [  1.18170492e-01  -5.21969944e-02  -3.89529914e-02  -8.53862092e-02
    2.03915462e-01  -6.35605380e-02   4.62710932e-02  -6.46725073e-02
   -1.16193481e-01   5.26056513e-02]
 [  1.25028148e-01  -8.22774693e-02  -2.32997630e-02  -1.12288468e-01
    2.32942954e-01  -3.58502604e-02   7.89662898e-02  -1.15750350e-01
   -1.31646693e-01   6.41755760e-02]
 [  1.33943811e-01  -1.32854670e-01  -3.32456548e-03  -1.15802594e-01
    2.17324033e-01   1.45449378e-02   1.16007455e-01  -1.68737039e-01
   -1.21454582e-01   6.03532046e-02]
 [  8.41126740e-02  -1.82676554e-01   2.82923486e-02  -8.65383670e-02
    1.86097935e-01   4.95131873e-02   1.52700245e-01  -2.15496466e-01
   -6.36785999e-02   4.76736650e-02]
 [ -5.44872172e-02  -1.62339181e-01   6.27068654e-02  -2.95882318e-02
    1.55380636e-01   5.32148965e-02   1.36200488e-01  -2.45556980e-01
    5.17113842e-02   3.27572227e-02]
 [ -1.85635328e-01  -1.28524634e-03   8.88918787e-02   9.37287044e-03
    1.05640985e-01   2.07125172e-02   4.36314754e-02  -2.67953753e-01
    1.71683341e-01   1.49413720e-02]
 [ -2.74245977e-01   2.92621404e-01   8.05097073e-02  -5.42932563e-03
    5.92875555e-02  -5.35744578e-02   4.06603143e-03  -2.48134047e-01
    1.74146324e-01  -2.92472579e-02]
 [ -3.10842246e-01   3.74355197e-01   3.11781392e-02  -3.01362406e-02
    8.54630470e-02  -1.12813339e-01   4.73873317e-02  -1.38276160e-01
    1.03116766e-01  -4.94325012e-02]
 [ -3.08924139e-01   1.27886683e-01   7.64369220e-03  -3.25948820e-02
    1.82688683e-01  -1.30580708e-01   6.21061213e-02   1.53773082e-02
    4.15427610e-02   3.48544605e-02]
 [ -2.60103315e-01  -1.59043476e-01   1.10246195e-02  -1.12105832e-02
    2.64142752e-01  -1.15692265e-01   2.88353637e-02   9.92676020e-02
   -1.05219511e-02   1.53301284e-01]
 [ -1.60547942e-01  -2.09016457e-01  -1.00755412e-02   2.59805769e-02
    2.39904970e-01  -7.55834207e-02  -1.19472025e-02   1.37088358e-01
   -9.44286212e-02   1.58625156e-01]
 [ -5.76154776e-02  -1.55788556e-01  -3.10040247e-02   6.07460514e-02
    1.69181541e-01  -1.60011947e-02  -1.39339855e-02   1.32564813e-01
   -1.38986230e-01   5.08370809e-02]
 [  1.21234581e-02  -1.09764673e-01  -4.05818336e-02   7.83125013e-02
    1.24047995e-01  -8.51082243e-03   2.87445486e-02   9.53684300e-02
   -1.45667017e-01  -3.40726413e-02]
 [  5.33454791e-02  -7.43684322e-02  -5.41460328e-02   7.14172944e-02
    7.03368410e-02  -1.90644059e-02   8.06108415e-02   5.86920157e-02
   -1.20939903e-01  -6.58837184e-02]
 [  8.53987634e-02  -4.97967079e-02  -5.12267910e-02   3.60970348e-02
    2.56607477e-02  -3.61938104e-02   1.19123243e-01   3.51412594e-02
   -8.67257267e-02  -7.74780363e-02]
 [  1.12790965e-01  -3.36262807e-02  -4.47947383e-02   1.51800178e-03
    7.41254119e-03  -3.92601639e-02   1.10258080e-01   1.36238355e-02
   -5.79845868e-02  -6.99376985e-02]
 [  1.05412826e-01  -2.11506169e-02  -2.11806502e-02  -1.61691029e-02
   -3.79884965e-04  -3.27202491e-02   8.25878754e-02  -5.45932306e-03
   -3.73592712e-02  -5.35815954e-02]
 [  4.75351922e-02  -1.10730901e-02   1.73529461e-02  -1.25653688e-02
   -8.97876453e-03  -1.65499020e-02   3.94394025e-02  -6.87346887e-03
   -1.90373175e-02  -2.92496309e-02]
 [  3.04166169e-04  -4.48842673e-03   3.05173751e-02  -4.84709768e-03
   -4.92788898e-03  -4.60442947e-03   3.58445593e-03  -2.34283227e-03
   -4.73721791e-03  -8.45810026e-03]
 [ -6.11899188e-04  -1.20190089e-03   1.30842328e-02  -1.11135305e-03
    2.20293106e-04  -8.84700916e-04  -5.76393353e-03  -4.55730420e-04
   -1.75201858e-03  -1.52299122e-03]
 [ -8.33194717e-05  -1.55533984e-04   1.55343628e-03  -1.12533431e-04
   -1.04733241e-04  -1.44794001e-04  -5.93874895e-04  -6.89930748e-05
   -1.63216624e-04  -1.26437517e-04]
 [ -3.27697262e-06  -9.84621167e-08  -7.55602869e-08  -1.71533884e-06
   -5.65828395e-06  -1.21913981e-05  -7.81357357e-07   3.74775409e-05
   -2.86620957e-06  -1.08139484e-05]
 [ -2.01224648e-05   1.29995942e-05  -1.36638511e-04   4.38892137e-04
   -8.68623465e-06  -3.22905325e-05  -1.19717652e-05  -9.52812843e-05
   -5.94946141e-05  -8.74063408e-05]
 [ -5.45697927e-04   2.13546882e-05  -6.66719512e-04   3.92544549e-03
   -4.22488054e-04  -4.00939345e-04  -3.09196970e-04  -1.77601338e-04
   -6.31514587e-04  -7.92643521e-04]
 [ -9.03269276e-03  -9.63339466e-04   5.67011256e-03   1.29183847e-02
   -3.75762524e-04  -4.50376305e-04  -5.98839996e-03   4.35401918e-04
   -3.32510425e-03   1.11177214e-03]
 [  6.09301031e-03  -4.92055714e-03   2.18238309e-02   1.93366650e-02
    5.29434904e-03  -1.00254789e-02  -2.61156876e-02  -1.83618814e-03
   -1.77401658e-02   8.09022598e-03]
 [  7.93509856e-02  -1.91575065e-02   3.11903264e-02  -7.76158064e-04
    4.61858511e-02  -3.84157449e-02  -3.04386299e-02  -1.88609678e-02
   -5.08203097e-02   1.74218393e-03]
 [  1.15274169e-01  -4.23208550e-02   4.43481170e-02  -3.98411006e-02
    1.09649949e-01  -6.24070913e-02  -2.83386000e-03  -3.73968109e-02
   -7.86016136e-02  -5.87096903e-03]
 [  1.26293406e-01  -6.51051104e-02   3.97879407e-02  -7.81998336e-02
    1.62536323e-01  -1.00229613e-01   4.68742959e-02  -6.79307356e-02
   -7.86233619e-02   1.45967398e-02]
 [  1.41370073e-01  -9.24975201e-02   4.17379700e-02  -1.22520372e-01
    1.80717260e-01  -1.27448842e-01   9.32222083e-02  -1.12022564e-01
   -5.30086868e-02   5.04504703e-02]
 [  1.34893641e-01  -1.23362005e-01   6.41630515e-02  -1.46848217e-01
    1.51325956e-01  -1.18074290e-01   1.44139886e-01  -1.43180758e-01
   -2.25677192e-02   5.95104843e-02]
 [  6.66290298e-02  -1.26981899e-01   8.89944807e-02  -1.52394637e-01
    1.10555001e-01  -1.01644702e-01   1.87211171e-01  -1.69354975e-01
    2.59056706e-02   7.10808486e-02]
 [ -7.69911706e-02  -7.27461725e-02   1.23608984e-01  -1.21552624e-01
    1.00035064e-01  -9.36014876e-02   1.54685855e-01  -1.81080893e-01
    1.15576126e-01   5.20663708e-02]
 [ -2.02742249e-01   7.06252828e-02   1.49135560e-01  -1.03251070e-01
    9.76486504e-02  -9.20054838e-02   5.35785258e-02  -1.69207171e-01
    1.97822154e-01  -1.60407426e-03]
 [ -2.71600813e-01   3.00187290e-01   1.27981991e-01  -1.10764839e-01
    1.07337989e-01  -1.11892961e-01   2.62323208e-02  -1.23183057e-01
    1.29667431e-01  -7.39653036e-02]
 [ -2.93036371e-01   3.19416225e-01   7.40840062e-02  -1.26211762e-01
    1.75601259e-01  -1.20166376e-01   3.99234779e-02  -2.20115725e-02
    2.85954848e-02  -7.61944056e-02]
 [ -2.73809642e-01   4.45439667e-02   6.09963574e-02  -9.79855210e-02
    2.60993719e-01  -1.08242027e-01   9.47837345e-03   8.34524706e-02
   -6.00260030e-03   2.65748706e-02]
 [ -2.01371953e-01  -1.65927500e-01   6.75940588e-02  -3.36814485e-02
    2.67096341e-01  -8.36153105e-02  -4.58963849e-02   1.07173905e-01
   -3.13792489e-02   1.20007575e-01]
 [ -9.39573944e-02  -2.00530887e-01   3.82429436e-02   2.92488951e-02
    2.03437373e-01  -3.91447991e-02  -5.03376983e-02   1.08579390e-01
   -8.42772573e-02   8.87395442e-02]
 [ -7.97232334e-03  -1.56747848e-01  -3.81268747e-03   8.38880539e-02
    1.33733690e-01   3.28343408e-03   5.10318251e-03   8.65912661e-02
   -1.32678106e-01  -1.13886185e-02]
 [  3.74288745e-02  -1.11409023e-01  -2.00872999e-02   1.05996393e-01
    7.28528723e-02   1.16193006e-02   5.93035743e-02   5.49560711e-02
   -1.33918747e-01  -7.67420083e-02]
 [  5.45660593e-02  -7.67109394e-02  -1.93426199e-02   1.00020587e-01
    3.34282368e-02   4.33576480e-03   8.69709849e-02   2.06831191e-02
   -1.13811500e-01  -9.01397467e-02]
 [  7.13564157e-02  -5.13535067e-02   2.19225255e-03   7.19985589e-02
    1.41694956e-03  -1.60386059e-02   9.51750055e-02   7.66239502e-03
   -8.95922333e-02  -9.28172469e-02]
 [  8.57256651e-02  -3.49778160e-02   1.17172180e-02   2.91586500e-02
   -1.78429708e-02  -1.37405973e-02   8.11799914e-02  -1.01012923e-02
   -5.97941950e-02  -7.13247061e-02]
 [  7.28851110e-02  -2.29806956e-02   3.01114470e-02  -3.25222546e-03
   -1.82725824e-02  -9.03327204e-03   5.23797423e-02  -1.67167298e-02
   -2.98048723e-02  -5.53159267e-02]
 [  2.86152102e-02  -1.32688330e-02   5.00911288e-02  -1.20985955e-02
   -1.28238266e-02  -5.48225036e-03   2.14823075e-02  -9.62330680e-03
   -1.66752264e-02  -3.02166268e-02]
 [ -2.57909182e-03  -6.56812917e-03   5.16426042e-02  -6.25009974e-03
   -6.69101393e-03  -5.00567630e-03  -4.15608240e-03  -3.86619684e-03
   -7.89269712e-03  -8.63362197e-03]
 [ -1.13007112e-03  -1.57894311e-03   1.84032638e-02  -1.36953255e-03
   -1.25200639e-03  -1.27385918e-03  -7.24132266e-03  -5.59668115e-04
   -2.42529553e-03  -1.57256273e-03]
 [ -1.32293615e-04  -1.32814850e-04   1.84960978e-03  -1.13829577e-04
   -1.31720139e-04  -2.05275428e-04  -8.25423689e-04  -6.79313889e-05
   -1.48180508e-04  -9.21406463e-05]
 [  0.00000000e+00   0.00000000e+00   0.00000000e+00   0.00000000e+00
    0.00000000e+00   0.00000000e+00   0.00000000e+00   0.00000000e+00
    0.00000000e+00   0.00000000e+00]
 [ -9.25546374e-06   4.76343084e-05  -7.45843645e-05   1.46809223e-04
   -4.72450665e-06  -2.40309382e-05  -7.66838457e-06   8.69723772e-06
   -4.71121348e-05  -3.57649369e-05]
 [ -9.27166606e-04  -1.74407527e-04  -4.04260616e-04   5.54952538e-03
   -3.07408511e-04  -7.16558250e-04  -5.83151472e-04  -4.23209422e-04
   -7.87375029e-04  -1.22598885e-03]
 [ -1.15546146e-02  -1.66147959e-03   1.53163830e-02   2.67551467e-02
   -7.42864423e-03  -1.36901438e-03  -8.48480873e-03  -1.71158044e-03
   -6.56842953e-03  -3.29296221e-03]
 [  6.36048988e-03  -7.50024058e-03   5.26849665e-02   3.86028402e-02
   -8.20315070e-03  -6.61849743e-03  -3.45116630e-02  -7.36358482e-03
   -2.35614590e-02  -9.88970604e-03]
 [  8.04858282e-02  -2.89778635e-02   8.64556953e-02   1.56214591e-02
    3.02357599e-03  -4.49319417e-03  -4.82412055e-02  -2.49553006e-02
   -5.20659126e-02  -2.68530548e-02]
 [  1.18032716e-01  -5.95273450e-02   9.94555131e-02  -2.52146050e-02
    4.01423201e-02   6.22908864e-03  -2.74594650e-02  -5.29265739e-02
   -6.15603998e-02  -3.71712819e-02]
 [  1.29665136e-01  -8.18782374e-02   9.54840034e-02  -6.91321939e-02
    7.81018138e-02  -6.17272183e-02   3.87026854e-02  -8.24770853e-02
   -2.56323293e-02  -2.11066511e-02]
 [  1.43438414e-01  -9.62867886e-02   9.03897658e-02  -1.27319843e-01
    8.79999623e-02  -1.35912597e-01   1.04897074e-01  -1.07240088e-01
    3.61882374e-02   3.84584954e-03]
 [  1.37016207e-01  -9.61886570e-02   9.74155664e-02  -1.87981680e-01
    5.88442460e-02  -1.67954147e-01   1.66344732e-01  -1.24487765e-01
    9.55191553e-02   2.14724261e-02]
 [  6.53110594e-02  -5.22200465e-02   1.14217922e-01  -2.11164683e-01
    2.98948307e-02  -1.80510849e-01   2.24359483e-01  -1.41320109e-01
    1.17813848e-01   3.36185321e-02]
 [ -7.11572990e-02   8.42901971e-03   1.49795830e-01  -2.03449711e-01
    2.94657666e-02  -1.65980697e-01   1.90415308e-01  -1.32814914e-01
    1.81770384e-01   1.35263745e-02]
 [ -1.75055221e-01   1.34292796e-01   1.62593856e-01  -1.94716662e-01
    5.33938222e-02  -1.51973903e-01   9.74648520e-02  -9.01654214e-02
    1.94383323e-01  -3.02172601e-02]
 [ -2.34614894e-01   2.73391843e-01   1.38817117e-01  -1.98631808e-01
    1.10707238e-01  -1.32625669e-01   4.20367271e-02  -6.39709365e-03
    7.77743161e-02  -7.04576895e-02]
 [ -2.48217255e-01   2.27152511e-01   1.02281719e-01  -1.91161826e-01
    1.88813329e-01  -1.05178542e-01   1.16039896e-02   7.52710626e-02
   -2.19991691e-02  -3.85659076e-02]
 [ -2.03155085e-01   9.21749510e-03   9.95385870e-02  -1.20815210e-01
    2.20380917e-01  -7.14298040e-02  -4.17971238e-02   9.97755677e-02
   -4.89705354e-02   5.72551824e-02]
 [ -1.15329638e-01  -1.42216489e-01   8.41643661e-02  -1.28288455e-02
    1.82590574e-01  -3.14087160e-02  -6.57625869e-02   7.17134178e-02
   -3.96880582e-02   6.87659830e-02]
 [ -2.37496849e-02  -1.77631348e-01   4.80200239e-02   6.42201230e-02
    1.02024972e-01  -1.12990569e-03  -1.26495510e-02   5.00955880e-02
   -7.07512200e-02   2.15508863e-02]
 [  2.41248049e-02  -1.47407174e-01   1.91048440e-02   9.08856988e-02
    4.28828448e-02   2.67678164e-02   6.54526725e-02   2.31482629e-02
   -9.36122462e-02  -5.13475202e-02]
 [  3.97435129e-02  -1.04657680e-01   1.06328074e-02   1.14182398e-01
   -8.98477715e-03   3.06601971e-02   9.88822207e-02  -1.17860232e-02
   -8.59261602e-02  -8.27464536e-02]
 [  4.30907942e-02  -7.35306218e-02   2.81130858e-02   1.04944915e-01
   -3.52984332e-02   2.25382242e-02   9.67726782e-02  -2.80281249e-02
   -7.61090815e-02  -8.24934915e-02]
 [  5.08385487e-02  -5.10469116e-02   5.01758456e-02   8.59603360e-02
   -4.30951118e-02   6.08680164e-03   8.28649551e-02  -3.31576653e-02
   -6.72930181e-02  -8.13337862e-02]
 [  6.17752299e-02  -3.52877416e-02   6.71496168e-02   4.62117158e-02
   -4.76880893e-02  -2.68881849e-04   5.48970625e-02  -3.03152204e-02
   -4.75455225e-02  -6.89281598e-02]
 [  3.86014357e-02  -2.49616466e-02   8.09585974e-02   3.54854786e-03
   -3.40668261e-02   7.28203496e-03   2.39698570e-02  -2.28897668e-02
   -2.15499010e-02  -5.08923493e-02]
 [  1.26870917e-02  -1.57800596e-02   9.47452411e-02  -2.06561331e-02
   -2.00166497e-02   5.33060869e-03  -4.65983059e-03  -1.12110162e-02
   -1.21173374e-02  -2.83219106e-02]
 [ -2.88461335e-03  -7.43276905e-03   6.48650974e-02  -8.30364320e-03
   -8.96490365e-03  -4.99727577e-03  -1.22061567e-02  -2.88600056e-03
   -9.90691502e-03  -7.28281261e-03]
 [ -7.74773944e-04  -1.41022727e-03   1.49996197e-02  -1.21815910e-03
   -1.32403744e-03  -9.32702271e-04  -6.21812884e-03   8.30939825e-05
   -2.04673619e-03  -1.15794886e-03]
 [  1.34164045e-04  -6.60697697e-05   9.03988839e-04  -5.83442088e-05
   -2.06614524e-04  -6.86125713e-05  -4.40112170e-04  -5.69096119e-05
   -7.37067967e-05  -6.77831995e-05]
 [ -5.23510153e-06  -8.14693612e-06  -6.08552637e-06  -4.05653627e-05
   -5.44055620e-05  -2.39290111e-05  -8.29051442e-06   9.56168369e-05
   -2.39128640e-05   7.49540195e-05]
 [ -4.13666794e-06   1.85212466e-05  -2.90938115e-05   6.37898702e-05
   -2.77211029e-06  -2.06343448e-05  -4.19365097e-06   9.82100028e-06
   -1.65704405e-05  -1.47310784e-05]
 [ -1.11783296e-03  -3.29738919e-04  -2.22837389e-03   8.91373772e-03
   -2.71496072e-04  -1.22182071e-03  -6.45418535e-04  -3.71629401e-04
   -1.36057963e-03  -1.36684859e-03]
 [ -1.54485693e-02  -2.45197210e-03   2.00428329e-02   4.45276834e-02
   -9.96596925e-03  -3.91488522e-03  -1.07240099e-02  -2.40776292e-03
   -1.20057799e-02  -7.65155768e-03]
 [ -2.89845979e-04  -1.15091139e-02   7.30126426e-02   6.63538352e-02
   -2.29249727e-02  -6.68639317e-04  -3.90297323e-02  -1.26336720e-02
   -3.23709995e-02  -1.99394990e-02]
 [  6.81048557e-02  -3.93811017e-02   1.17936939e-01   5.31783253e-02
   -3.41056474e-02   2.55253948e-02  -6.44801632e-02  -3.75382826e-02
   -4.57187779e-02  -4.35215719e-02]
 [  1.04944900e-01  -7.76275024e-02   1.32620364e-01   1.24172997e-02
   -3.80962789e-02   8.23668018e-02  -5.18125184e-02  -6.86604306e-02
   -3.54040302e-02  -6.07486628e-02]
 [  1.22975878e-01  -9.45640579e-02   1.36999547e-01  -4.42873426e-02
   -2.64002606e-02   2.99153160e-02   1.66722331e-02  -9.06495750e-02
    1.74439196e-02  -6.81056380e-02]
 [  1.45419478e-01  -8.42947438e-02   1.13296993e-01  -1.05059527e-01
   -3.07552423e-02  -5.53582944e-02   9.50688422e-02  -1.08736679e-01
    9.33364853e-02  -6.29173666e-02]
 [  1.43149003e-01  -5.06168529e-02   1.10898592e-01  -1.70022354e-01
   -5.66955060e-02  -1.18189052e-01   1.77284017e-01  -1.21768355e-01
    1.43385097e-01  -5.74246012e-02]
 [  8.31624717e-02  -4.36485792e-03   1.39944345e-01  -2.05264270e-01
   -8.84182677e-02  -1.50265902e-01   2.49200389e-01  -1.29300669e-01
    1.57898992e-01  -5.25921360e-02]
 [ -3.16612683e-02   5.94672784e-02   1.59826517e-01  -2.10445285e-01
   -7.60493726e-02  -1.44628033e-01   2.35814899e-01  -9.78124961e-02
    1.69799253e-01  -6.43113479e-02]
 [ -1.24713801e-01   1.40887007e-01   1.71355784e-01  -2.11745769e-01
   -1.73231661e-02  -1.12726822e-01   1.57039270e-01  -2.88938582e-02
    1.10684663e-01  -8.45632777e-02]
 [ -1.68920174e-01   1.94224164e-01   1.52588338e-01  -2.09336370e-01
    5.37244231e-02  -8.10929015e-02   6.87019378e-02   6.50519133e-02
   -2.43881484e-03  -7.25026876e-02]
 [ -1.66259915e-01   1.42576605e-01   1.11522838e-01  -1.82401583e-01
    1.03295133e-01  -4.51715402e-02   1.04210442e-02   1.05574459e-01
   -7.72476047e-02  -2.30957684e-03]
 [ -1.12168260e-01   4.02641454e-04   8.49145502e-02  -8.65271464e-02
    1.07567094e-01  -2.50731092e-02  -5.04866056e-03   7.08135664e-02
   -6.77634999e-02   3.28828096e-02]
 [ -4.44790721e-02  -1.13036938e-01   7.97180012e-02   3.30853090e-02
    6.42152205e-02  -2.84996885e-03   2.37388685e-02   1.84462052e-02
   -6.36924133e-02   4.85481787e-03]
 [  6.43913541e-03  -1.44706637e-01   6.01111166e-02   9.38448384e-02
   -5.93891833e-03   2.31840275e-02   8.91891643e-02  -1.46443443e-02
   -6.76500276e-02  -3.98283228e-02]
 [  2.71038115e-02  -1.27435148e-01   4.71829362e-02   1.12410493e-01
   -5.19884080e-02   2.73249298e-02   1.31720394e-01  -4.32185829e-02
   -5.66336066e-02  -6.64668307e-02]
 [  2.95699816e-02  -9.47017223e-02   4.81067672e-02   1.18762642e-01
   -7.55957589e-02   3.11090965e-02   1.17348097e-01  -6.27856255e-02
   -4.59961556e-02  -6.58173487e-02]
 [  2.30692942e-02  -6.73261508e-02   6.62345663e-02   1.09275647e-01
   -7.86997229e-02   3.17660198e-02   8.84035230e-02  -6.79876804e-02
   -4.40972038e-02  -6.06382713e-02]
 [  3.28095779e-02  -4.96834219e-02   9.47120115e-02   9.48154554e-02
   -7.43030608e-02   1.78811364e-02   6.21180199e-02  -6.21859655e-02
   -4.91565838e-02  -6.70071021e-02]
 [  3.36706340e-02  -3.73308733e-02   1.18654318e-01   4.77208793e-02
   -6.45198300e-02   1.66564323e-02   2.33535971e-02  -4.76684980e-02
   -3.02977115e-02  -6.02389611e-02]
 [  1.43323177e-02  -2.66262926e-02   1.37810767e-01  -6.89999107e-03
   -3.89204957e-02   1.96774397e-02  -4.35375562e-03  -3.35730650e-02
   -1.71612632e-02  -4.42856848e-02]
 [  1.45499420e-04  -1.51382107e-02   1.21576965e-01  -2.54930165e-02
   -1.90632176e-02   1.21276034e-02  -2.08376087e-02  -1.68616679e-02
   -1.32644260e-02  -2.31918972e-02]
 [ -3.13499221e-03  -5.06458152e-03   5.80393337e-02  -8.16807523e-03
   -7.51894061e-03  -3.13903484e-03  -1.30196884e-02  -3.64168361e-03
   -8.87832325e-03  -5.47401374e-03]
 [ -5.19953493e-04  -7.46655394e-04   8.53432063e-03  -1.17010635e-03
   -4.01491736e-04  -5.20946516e-04  -3.64659238e-03   1.38488336e-04
   -1.22262095e-03  -4.44443984e-04]
 [ -1.54446228e-04  -1.36891267e-05   1.29028596e-03  -6.09206181e-05
   -1.90104311e-05  -1.22215322e-04  -8.21311900e-04  -1.18226199e-05
   -5.81604763e-05  -2.87090734e-05]
 [ -9.02572140e-07   2.03947475e-05  -3.00245119e-06  -1.84625321e-06
   -1.11938448e-06  -1.74127592e-06  -1.65772110e-06  -1.37645941e-06
   -6.89517901e-06  -1.85344493e-06]
 [  1.66687765e-04   9.34598283e-05  -7.41722397e-05   9.28627560e-05
   -1.00683144e-04  -6.92958565e-05  -4.91945357e-05   3.00627406e-04
   -8.96788697e-05  -2.70613062e-04]
 [ -1.29606517e-03  -5.89989650e-04  -2.21230974e-03   1.23988595e-02
   -5.72740741e-04  -2.08758889e-03  -8.81463522e-04  -7.45957776e-04
   -2.07288936e-03  -1.93985307e-03]
 [ -1.51911192e-02  -3.38435289e-03   1.79101508e-02   6.06825240e-02
   -9.33048595e-03  -8.51557404e-03  -1.12218903e-02  -4.72393539e-03
   -1.63870230e-02  -9.83829331e-03]
 [ -4.13407991e-03  -1.48277059e-02   7.24053234e-02   9.15331170e-02
   -2.80384421e-02  -1.56033563e-03  -3.85416783e-02  -1.56471785e-02
   -3.63415927e-02  -2.48474069e-02]
 [  4.64025140e-02  -4.68993410e-02   1.16808176e-01   9.17750299e-02
   -5.29988259e-02   4.29118276e-02  -6.96382895e-02  -4.34427671e-02
   -3.67018953e-02  -4.82164212e-02]
 [  8.23813081e-02  -7.84431547e-02   1.43944427e-01   6.07580468e-02
   -8.63867253e-02   1.19198114e-01  -7.34462813e-02  -7.50573799e-02
   -1.67766884e-02  -7.61716440e-02]
 [  1.02420889e-01  -8.53042677e-02   1.57610685e-01   1.03378166e-02
   -1.12298235e-01   1.11605316e-01  -2.42712311e-02  -9.99606922e-02
    4.01591733e-02  -1.00299314e-01]
 [  1.26686230e-01  -5.87296821e-02   1.40960455e-01  -4.63146158e-02
   -1.38842762e-01   6.81567490e-02   5.18724695e-02  -1.14864841e-01
    9.39129069e-02  -1.22836843e-01]
 [  1.42967448e-01  -1.38811264e-02   1.42211601e-01  -1.03064857e-01
   -1.66315496e-01   5.00979787e-03   1.46184906e-01  -1.24724343e-01
    1.15532778e-01  -1.43920541e-01]
 [  1.05620131e-01   2.22541187e-02   1.51468322e-01  -1.41729772e-01
   -1.79296941e-01  -3.75710428e-02   2.46146575e-01  -1.13789357e-01
    1.01449467e-01  -1.54551491e-01]
 [  2.63515934e-02   6.26902506e-02   1.56115592e-01  -1.59142762e-01
   -1.54029489e-01  -4.02922332e-02   2.73310721e-01  -6.61552846e-02
    5.30230440e-02  -1.51871443e-01]
 [ -4.30634320e-02   8.07623565e-02   1.41755417e-01  -1.59763858e-01
   -9.92122218e-02  -2.41898317e-02   2.17255145e-01   1.46716675e-02
    2.10852828e-03  -1.30323976e-01]
 [ -7.93276131e-02   1.06272116e-01   1.11644842e-01  -1.45469710e-01
   -2.49370914e-02  -1.41451834e-02   1.26859620e-01   7.82615915e-02
   -8.37937146e-02  -7.53648132e-02]
 [ -7.06675723e-02   7.62346089e-02   6.72659203e-02  -1.05475470e-01
    1.44334780e-02  -8.49664584e-03   8.25637728e-02   8.44422057e-02
   -1.14945114e-01  -2.53551863e-02]
 [ -3.90245765e-02   9.72515554e-04   4.97050397e-02  -2.96367966e-02
    7.25080958e-03  -4.46403259e-03   9.94028524e-02   2.41453703e-02
   -8.22908655e-02  -2.60603577e-02]
 [ -3.61634372e-03  -7.28503466e-02   4.73937802e-02   6.05721734e-02
   -2.16028690e-02   2.21339380e-03   1.36160210e-01  -3.46738249e-02
   -6.69990852e-02  -4.65971865e-02]
 [  1.89367663e-02  -1.10243283e-01   5.25788255e-02   1.13511130e-01
   -4.71908860e-02   1.98818929e-02   1.58665702e-01  -6.66620433e-02
   -6.35907799e-02  -7.58873373e-02]
 [  1.78257599e-02  -1.02728359e-01   5.96435778e-02   1.23561934e-01
   -7.38349631e-02   2.89473198e-02   1.44557744e-01  -9.11369100e-02
   -3.71850841e-02  -6.96510300e-02]
 [  7.59882946e-03  -8.07503983e-02   7.43182227e-02   1.18448846e-01
   -8.64527822e-02   3.01720668e-02   1.05142266e-01  -9.61213037e-02
   -2.27022339e-02  -4.96535599e-02]
 [  9.61188227e-03  -6.29303083e-02   1.04165763e-01   1.02884986e-01
   -8.54013264e-02   3.36788334e-02   6.34144917e-02  -9.69810262e-02
   -2.23690383e-02  -4.60742898e-02]
 [  1.69242490e-02  -4.76153791e-02   1.38380542e-01   8.05054680e-02
   -7.10036233e-02   2.82178987e-02   2.21695453e-02  -8.25944245e-02
   -2.78420113e-02  -5.71421944e-02]
 [  1.06818229e-02  -3.51087004e-02   1.58713326e-01   2.28128321e-02
   -5.89366183e-02   2.71101333e-02  -9.70340800e-03  -5.67794777e-02
   -1.10636242e-02  -4.77262177e-02]
 [ -3.08066932e-03  -2.31820941e-02   1.55427471e-01  -2.06174776e-02
   -3.26429829e-02   2.73242425e-02  -2.85673980e-02  -3.31458710e-02
   -9.62789543e-03  -3.18873078e-02]
 [ -5.62672783e-03  -1.16814869e-02   1.07934326e-01  -2.28190050e-02
   -1.51176974e-02   1.17786229e-02  -2.39934791e-02  -1.22037260e-02
   -1.39673781e-02  -1.43034616e-02]
 [ -3.12367664e-03  -3.33701354e-03   4.78863567e-02  -7.20879622e-03
   -5.00574335e-03  -1.38243637e-03  -1.32532958e-02  -2.78020347e-03
   -8.24345276e-03  -3.55173717e-03]
 [ -5.22663526e-04  -5.59010427e-04   9.86194424e-03  -1.24981289e-03
   -4.07825137e-04  -6.16650796e-04  -4.01776936e-03  -4.31929075e-04
   -1.44510157e-03  -6.11178984e-04]
 [ -5.69943877e-05   1.72392902e-06   6.97888783e-04  -3.76922217e-05
   -1.67528708e-06  -5.69808835e-05  -5.18614717e-04  -1.52399627e-06
   -2.36904671e-05  -2.44076728e-06]
 [  0.00000000e+00   0.00000000e+00   0.00000000e+00   0.00000000e+00
    0.00000000e+00   0.00000000e+00   0.00000000e+00   0.00000000e+00
    0.00000000e+00   0.00000000e+00]
 [  4.36440605e-04  -3.81592254e-05  -1.15055736e-04   2.08298938e-04
   -3.81890495e-05  -8.42623631e-05  -8.52153535e-05  -3.38377431e-05
   -8.42278241e-05  -1.65792226e-04]
 [ -1.31626369e-03  -7.82920688e-04  -1.06345653e-03   1.11076534e-02
   -5.24564763e-04  -1.81111903e-03  -8.14118946e-04  -1.04976364e-03
   -2.16868427e-03  -1.57676183e-03]
 [ -1.35352174e-02  -4.31534974e-03   1.73771121e-02   6.34647608e-02
   -8.38914607e-03  -9.73002613e-03  -9.71125998e-03  -6.71913475e-03
   -1.85298100e-02  -9.91192460e-03]
 [ -5.96737582e-03  -1.36935655e-02   6.74093515e-02   1.05274044e-01
   -2.68215220e-02  -1.32422233e-02  -3.43413241e-02  -1.94656961e-02
